{"learner":{"attributes":{"scikit_learn":"{\"_estimator_type\": \"regressor\"}"},"feature_names":["soil_moisture_%","soil_pH","temperature_C","rainfall_mm","humidity_%","sunlight_hours","pesticide_usage_ml","total_days","latitude","longitude","NDVI_index","crop_disease_status","sowing_month","harvest_month","days_to_harvest","fertilizer_type_Inorganic","fertilizer_type_Mixed","fertilizer_type_Organic","region_East Africa","region_North India","region_South India","region_South USA","crop_type_Maize","crop_type_Rice","crop_type_Soybean","crop_type_Wheat","irrigation_type_Manual","irrigation_type_Sprinkler","irrigation_type_Unknown"],"feature_types":["float","float","float","float","float","float","float","float","float","float","float","int","int","int","int","i","i","i","i","i","i","i","i","i","i","i","i","i","i"],"gradient_booster":{"model":{"cats":{"enc":[],"feature_segments":[],"sorted_idx":[]},"gbtree_model_param":{"num_parallel_tree":"1","num_trees":"16"},"iteration_indptr":[0,1,2,3,4,5,6,7,8,9,10,11,12,13,14,15,16],"tree_info":[0,0,0,0,0,0,0,0,0,0,0,0,0,0,0,0],"trees":[{"base_weights":[-1.3348418E1,-1.13264336E2,5.268385E2,-8.1114624E2,-6.525245E1,7.020044E2,-1.8987094E2,-2.050008E0,-1.1221794E3,-2.9440693E1,-1.0766476E3,-4.0646448E2,7.9769336E2,9.54733E-2,-7.38439E2,-7.0736066E-2,5.274455E2,-3.70307E2,-1.3107104E3,-3.8382852E2,6.2774975E1,9.361419E-2,-1.445264E-1,-1.6019067E-2,-5.7264294E-2,4.7481012E2,1.1480121E3,-8.82168E2,1.338319E-2,9.6235596E-2,-3.8864292E-2,-2.9807983E-3,-4.7387067E-2,-1.3976032E-1,-2.6433801E-2,-5.7921955E1,-8.064057E2,2.0744333E2,-3.429231E2,6.921537E2,-4.025888E2,7.7907103E-3,1.2063767E3,-1.3387305E-2,-9.8457166E2,-4.3859857E2,6.7408997E2,-4.437996E2,-1.3211486E-1,5.1535986E2,8.007508E1,4.7352713E2,-6.4051886E2,-5.4149304E-2,7.965737E2,3.0836193E-2,-6.5741695E-2,1.2610631E3,1.6569689E-2,-1.08020276E-1,-2.53208E-2,4.3209717E2,-6.688857E2,-2.8114014E1,8.332591E2,9.0753205E-2,-6.05147E2,8.8457495E2,-1.2307446E2,-7.507186E2,1.9174428E2,-5.78907E-2,7.848779E2,1.3397269E1,-9.558635E2,9.193813E2,3.1795917E2,2.258319E-2,1.315023E-1,-5.8724303E-2,8.33743E-2,1.1831323E2,-9.202017E2,1.4189197E-2,-1.8406298E-2,2.8493298E2,1.0599333E-1,5.67432E-2,-7.38994E2,-3.9203797E-2,9.4637683E2,-3.969134E2,8.6613044E-2,-9.6387384E2,9.0357184E-2,4.8035995E2,-1.1937332E2,9.331717E2,2.8939291E1,4.4077158E2,-8.440308E-2,-2.1767805E2,-1.1564081E3,1.0355945E3,1.8680598E2,3.9014544E-2,1.4607055E-3,2.5077802E2,-2.0577295E-2,-7.727734E1,-1.0664354E3,5.0906263E-2,-1.9372802E-2,-1.880188E2,-9.629809E2,1.3058628E-1,6.176138E2,7.054328E-2,-6.394238E2,-1.1554614E3,-3.9572754E0,7.102828E2,-1.034789E2,-7.257194E2,1.092516E2,3.152894E-2,1.04823105E-1,9.82069E-3,-5.4797973E-3,-1.752345E2,7.298077E2,2.640904E-2,-6.45027E2,-1.2535552E3,3.9326698E-2,1.1077375E3,1.5708191E-2,5.1222043E-3,2.2898693E-2,3.7786986E-3,3.0917935E-2,2.2712036E-3,-1.38628045E-2,-1.2948895E-1,-5.333128E-2,-6.4539395E-2,3.3202928E-2,-2.4080798E-2,-1.0231514E-1,-6.8802394E-2,8.53278E-2,-8.6202174E-2,9.04577E-2,-1.3553828E-1,-2.37184E-2,1.7263709E-2,-1.78573E-2,9.321302E-2,1.889104E-2,-6.1569974E-2,5.6987345E-2,-9.032664E-2,7.02422E-2,-7.1232E-2,2.6992422E-2,4.2762086E-3,-2.6215404E-2,9.962195E-3,8.18235E-2,-2.3168067E-2,-9.4253294E-2,4.7067017E-3,-1.3244861E-1,1.1768823E-1,2.4271691E-2],"categories":[],"categories_nodes":[],"categories_segments":[],"categories_sizes":[],"default_left":[0,0,0,0,0,0,0,0,0,0,0,0,0,0,0,0,0,0,0,0,0,0,0,0,0,0,0,0,0,0,0,0,0,0,0,0,0,0,0,0,0,0,0,0,0,0,0,0,0,0,0,0,0,0,0,0,0,0,0,0,0,0,0,0,0,0,0,0,0,0,0,0,0,0,0,0,0,0,0,0,0,0,0,0,0,0,0,0,0,0,0,0,0,0,0,0,0,0,0,0,0,0,0,0,0,0,0,0,0,0,0,0,0,0,0,0,0,0,0,0,0,0,0,0,0,0,0,0,0,0,0,0,0,0,0,0,0,0,0,0,0,0,0,0,0,0,0,0,0,0,0,0,0,0,0,0,0,0,0,0,0,0,0,0,0,0,0,0,0,0,0,0,0,0,0],"id":0,"left_children":[1,3,5,7,9,11,13,15,17,19,21,23,25,-1,27,-1,29,31,33,35,37,-1,-1,-1,-1,39,41,43,-1,-1,-1,-1,-1,-1,-1,45,47,49,51,53,55,-1,57,-1,59,61,63,65,-1,67,69,71,73,-1,75,-1,-1,77,-1,-1,-1,79,81,83,85,-1,87,89,91,93,95,-1,97,99,101,103,105,-1,-1,-1,-1,107,109,-1,-1,111,-1,-1,113,-1,115,117,-1,119,-1,121,123,125,127,129,-1,131,133,135,137,-1,-1,139,-1,141,143,-1,-1,145,147,-1,149,-1,151,153,155,157,159,161,163,-1,-1,-1,-1,165,167,-1,169,171,-1,173,-1,-1,-1,-1,-1,-1,-1,-1,-1,-1,-1,-1,-1,-1,-1,-1,-1,-1,-1,-1,-1,-1,-1,-1,-1,-1,-1,-1,-1,-1,-1,-1,-1,-1,-1,-1,-1,-1,-1],"loss_changes":[1.7978798E7,9.362434E6,6.661528E6,4.527503E6,9.530338E6,4.779102E6,7.6118375E6,2.6138472E6,1.357402E6,8.390203E6,8.030498E6,7.19695E4,3.866282E6,0E0,1.1210275E6,0E0,1.9676788E6,1.2692825E5,5.39784E5,7.252489E6,1.2044238E7,0E0,0E0,0E0,0E0,4.4739875E6,1.030228E6,4.04589E5,0E0,0E0,0E0,0E0,0E0,0E0,0E0,8.934109E6,3.706601E6,5.8807685E6,1.3423798E7,2.750052E6,1.1085738E6,0E0,7.58532E5,0E0,1.46131E5,4.499733E6,1.252887E6,3.8196985E6,0E0,1.0480529E7,1.0163546E7,5.369514E6,8.261166E6,0E0,7.06892E5,0E0,0E0,5.96804E5,0E0,0E0,0E0,2.5366785E6,3.4720795E6,1.05653836E5,8.16613E5,0E0,2.6165745E6,2.580136E6,4.9487865E6,5.454997E6,8.67751E6,0E0,1.318206E6,5.502223E6,3.745326E6,9.13298E5,1.0379044E5,0E0,0E0,0E0,0E0,2.6625338E5,1.52002E6,0E0,0E0,5.2774825E5,0E0,0E0,1.423288E6,0E0,2.384496E6,4.1936965E6,0E0,2.202324E6,0E0,6.785392E6,6.5947E6,3.80436E5,2.278238E4,1.9083675E6,0E0,1.6115281E6,3.65446E6,5.23158E5,5.428E3,0E0,0E0,3.807289E4,0E0,2.1551781E4,6.49153E5,0E0,0E0,1.4035751E6,1.446995E5,0E0,5.5101495E6,0E0,4.904063E6,1.514358E6,1.2333678E5,3.987858E6,5.524449E6,3.9307815E6,4.8124145E6,0E0,0E0,0E0,0E0,8.700292E4,3.0856525E5,0E0,2.7352525E5,1.907426E6,0E0,3.12468E5,0E0,0E0,0E0,0E0,0E0,0E0,0E0,0E0,0E0,0E0,0E0,0E0,0E0,0E0,0E0,0E0,0E0,0E0,0E0,0E0,0E0,0E0,0E0,0E0,0E0,0E0,0E0,0E0,0E0,0E0,0E0,0E0,0E0,0E0,0E0,0E0,0E0,0E0,0E0],"parents":[2147483647,0,0,1,1,2,2,3,3,4,4,5,5,6,6,7,7,8,8,9,9,10,10,11,11,12,12,14,14,16,16,17,17,18,18,19,19,20,20,25,25,26,26,27,27,35,35,36,36,37,37,38,38,39,39,40,40,42,42,44,44,45,45,46,46,47,47,49,49,50,50,51,51,52,52,54,54,57,57,61,61,62,62,63,63,64,64,66,66,67,67,68,68,69,69,70,70,72,72,73,73,74,74,75,75,76,76,81,81,82,82,85,85,88,88,90,90,91,91,93,93,95,95,96,96,97,97,98,98,99,99,101,101,102,102,103,103,104,104,107,107,109,109,110,110,113,113,114,114,116,116,118,118,119,119,120,120,121,121,122,122,123,123,124,124,129,129,130,130,132,132,133,133,135,135],"right_children":[2,4,6,8,10,12,14,16,18,20,22,24,26,-1,28,-1,30,32,34,36,38,-1,-1,-1,-1,40,42,44,-1,-1,-1,-1,-1,-1,-1,46,48,50,52,54,56,-1,58,-1,60,62,64,66,-1,68,70,72,74,-1,76,-1,-1,78,-1,-1,-1,80,82,84,86,-1,88,90,92,94,96,-1,98,100,102,104,106,-1,-1,-1,-1,108,110,-1,-1,112,-1,-1,114,-1,116,118,-1,120,-1,122,124,126,128,130,-1,132,134,136,138,-1,-1,140,-1,142,144,-1,-1,146,148,-1,150,-1,152,154,156,158,160,162,164,-1,-1,-1,-1,166,168,-1,170,172,-1,174,-1,-1,-1,-1,-1,-1,-1,-1,-1,-1,-1,-1,-1,-1,-1,-1,-1,-1,-1,-1,-1,-1,-1,-1,-1,-1,-1,-1,-1,-1,-1,-1,-1,-1,-1,-1,-1,-1,-1],"split_conditions":[8.2198113E-1,1E-1,1E0,3.6517754E-1,8.1093025E-1,3.5324525E-2,1.4908156E-1,3.6187145E-1,2.0766129E-1,2.587646E-1,3.8425982E-2,5.169443E-3,5.1525384E-1,9.54733E-2,9.902355E-1,-7.0736066E-2,8.8397473E-1,2.8116027E-1,9.4909275E-1,5.194886E-1,7.234348E-1,9.361419E-2,-1.445264E-1,-1.6019067E-2,-5.7264294E-2,1E0,4.5034913E-3,2.7497086E-1,1.338319E-2,9.6235596E-2,-3.8864292E-2,-2.9807983E-3,-4.7387067E-2,-1.3976032E-1,-2.6433801E-2,5.501306E-1,3E0,2.488444E-1,1.5430982E-1,1.1592742E-2,3.4576613E-1,7.7907103E-3,9.170017E-1,-1.3387305E-2,7.975302E-1,5.7464335E-2,1.9858871E-1,2.8807428E-1,-1.3211486E-1,1E0,1.8044356E-1,5.7464335E-2,3.1100968E-1,-5.4149304E-2,5.9702754E-1,3.0836193E-2,-6.5741695E-2,6.666667E-2,1.6569689E-2,-1.08020276E-1,-2.53208E-2,3.2560483E-1,3.505843E-2,4.4945434E-1,2.4095348E-1,9.0753205E-2,1.6694492E-2,3.4369063E-2,5.70649E-1,4.8985332E-1,5.655242E-1,-5.78907E-2,8.064516E-1,7.5734556E-1,2.1666667E-1,1E0,7.157258E-1,2.258319E-2,1.315023E-1,-5.8724303E-2,8.33743E-2,7.3978055E-1,1.381771E-1,1.4189197E-2,-1.8406298E-2,4.925439E-1,1.0599333E-1,5.67432E-2,2.2141853E-1,-3.9203797E-2,4.519829E-1,6.26231E-2,8.6613044E-2,1E0,9.0357184E-2,4.997128E-1,5.253829E-1,2.968392E-1,8.5410684E-1,8.038484E-1,-8.440308E-2,3.861764E-1,9.7558874E-1,9.4735783E-1,4.7616312E-1,3.9014544E-2,1.4607055E-3,1.7576106E-1,-2.0577295E-2,1.0252728E-1,7.565524E-1,5.0906263E-2,-1.9372802E-2,2.7139574E-1,1.6369903E-1,1.3058628E-1,1.7607075E-1,7.054328E-2,7.779787E-1,5.264216E-1,4.078116E-2,5.933293E-1,7.3455757E-1,6.286617E-1,2.986958E-1,3.152894E-2,1.04823105E-1,9.82069E-3,-5.4797973E-3,7.662263E-1,8.802605E-3,2.640904E-2,9.267662E-1,7.913306E-2,3.9326698E-2,8.5E-1,1.5708191E-2,5.1222043E-3,2.2898693E-2,3.7786986E-3,3.0917935E-2,2.2712036E-3,-1.38628045E-2,-1.2948895E-1,-5.333128E-2,-6.4539395E-2,3.3202928E-2,-2.4080798E-2,-1.0231514E-1,-6.8802394E-2,8.53278E-2,-8.6202174E-2,9.04577E-2,-1.3553828E-1,-2.37184E-2,1.7263709E-2,-1.78573E-2,9.321302E-2,1.889104E-2,-6.1569974E-2,5.6987345E-2,-9.032664E-2,7.02422E-2,-7.1232E-2,2.6992422E-2,4.2762086E-3,-2.6215404E-2,9.962195E-3,8.18235E-2,-2.3168067E-2,-9.4253294E-2,4.7067017E-3,-1.3244861E-1,1.1768823E-1,2.4271691E-2],"split_indices":[4,7,20,8,4,0,3,3,2,5,3,0,3,0,0,0,0,0,2,9,0,0,0,0,0,21,8,3,0,0,0,0,0,0,0,4,12,3,4,2,2,0,0,0,0,4,2,3,0,16,2,4,9,0,8,0,0,7,0,0,0,2,5,0,0,0,5,8,0,4,2,0,2,3,7,28,2,0,0,0,0,3,8,0,0,3,0,0,4,0,8,3,0,23,0,0,3,9,0,0,0,4,0,4,0,0,0,0,0,0,2,0,0,0,0,0,9,0,4,0,0,4,5,0,9,0,0,0,0,0,3,0,0,2,0,7,0,0,0,0,0,0,0,0,0,0,0,0,0,0,0,0,0,0,0,0,0,0,0,0,0,0,0,0,0,0,0,0,0,0,0,0,0,0,0],"split_type":[0,0,0,0,0,0,0,0,0,0,0,0,0,0,0,0,0,0,0,0,0,0,0,0,0,0,0,0,0,0,0,0,0,0,0,0,0,0,0,0,0,0,0,0,0,0,0,0,0,0,0,0,0,0,0,0,0,0,0,0,0,0,0,0,0,0,0,0,0,0,0,0,0,0,0,0,0,0,0,0,0,0,0,0,0,0,0,0,0,0,0,0,0,0,0,0,0,0,0,0,0,0,0,0,0,0,0,0,0,0,0,0,0,0,0,0,0,0,0,0,0,0,0,0,0,0,0,0,0,0,0,0,0,0,0,0,0,0,0,0,0,0,0,0,0,0,0,0,0,0,0,0,0,0,0,0,0,0,0,0,0,0,0,0,0,0,0,0,0,0,0,0,0,0,0],"sum_hessian":[3.31E2,2.8E2,5.1E1,1.7E1,2.63E2,4.1E1,1E1,5E0,1.2E1,2.55E2,8E0,3E0,3.8E1,3E0,7E0,2E0,3E0,3E0,9E0,5.2E1,2.03E2,1E0,7E0,2E0,1E0,2.1E1,1.7E1,6E0,1E0,2E0,1E0,1E0,2E0,8E0,1E0,3E1,2.2E1,1.5E2,5.3E1,1.7E1,4E0,1E0,1.6E1,1E0,5E0,2E1,1E1,1.4E1,8E0,4.3E1,1.07E2,1.4E1,3.9E1,1E0,1.6E1,1E0,3E0,1.5E1,1E0,4E0,1E0,4E0,1.6E1,2E0,8E0,1E0,1.3E1,2.7E1,1.6E1,1.2E1,9.5E1,3E0,1.1E1,1.3E1,2.6E1,1.2E1,4E0,1E0,1.4E1,1E0,3E0,4E0,1.2E1,1E0,1E0,3E0,5E0,1E0,1.2E1,1E0,2.6E1,1.3E1,3E0,1.1E1,1E0,4.9E1,4.6E1,9E0,2E0,9E0,4E0,6E0,2E1,1E1,2E0,3E0,1E0,3E0,1E0,2E0,1E1,2E0,1E0,4E0,8E0,1.1E1,1.5E1,2E0,1.1E1,9E0,2E0,3.5E1,1.4E1,1.2E1,3.4E1,2E0,7E0,1E0,1E0,3E0,6E0,3E0,3E0,1.9E1,1E0,9E0,1E0,1E0,1E0,1E0,2E0,1E0,1E0,6E0,4E0,2E0,2E0,1E0,7E0,2E0,1.3E1,1E1,1E0,7E0,2E0,1E0,1E0,2.4E1,1.1E1,8E0,6E0,1.1E1,1E0,5E0,2.9E1,1E0,2E0,1E0,5E0,2E0,1E0,1E0,1.8E1,8E0,1E0],"tree_param":{"num_deleted":"0","num_feature":"29","num_nodes":"175","size_leaf_vector":"1"}},{"base_weights":[9.752569E0,-9.38837E1,4.9321738E2,3.3577554E2,-1.759438E2,-9.787371E1,7.468779E2,-1.0595422E-1,5.060528E2,-2.8216962E2,1.6369612E2,3.2476312E2,-9.9727454E2,4.7206134E2,1.0909203E3,1.0500793E3,1.22282875E2,9.141989E1,-4.1232202E2,-2.5171703E2,4.3567773E2,8.1148035E2,-3.7832043E2,-4.0853262E-2,-1.1895123E-1,-6.324748E1,9.298801E2,7.7903196E-3,1.149365E3,3.9794742E2,1.4015638E3,3.8041385E2,-5.589515E2,-9.625127E2,3.4531107E2,-5.62819E2,3.342131E1,6.264948E2,-5.4686725E2,9.853027E1,1.1010154E3,1.0456943E3,7.2559E1,7.816013E-2,-7.6662506E2,-6.773242E-2,2.1670305E2,1.0430851E3,2.0483503E-2,1.20504595E-1,1.5707409E-2,5.965811E2,-3.9692737E-2,1.5242675E-1,1.4861499E-2,-9.198702E-2,5.1101117E2,-7.8533344E2,3.9967027E-2,-1.13895334E-1,2.245066E-2,-5.131195E2,5.627155E2,8.389873E1,-6.9486176E2,-6.8179095E2,2.8956088E2,1.0327212E-1,-1.2397184E2,-6.9805835E2,9.360952E-2,6.019167E2,-6.160637E2,1.2943484E-1,4.390954E-2,3.1194737E-2,1.13005415E-1,2.4270482E-2,-1.3386633E-2,-8.467493E-3,-9.159438E-2,5.6312665E2,-1.7306119E2,1.3132964E-1,5.9902634E-2,7.432907E-2,2.0210791E-2,3.2874152E2,1.02120206E-1,-3.2368317E-2,-9.352378E-2,-9.7003033E2,5.71742E2,6.6951013E2,-6.216062E-2,-8.296312E2,8.0633276E2,-8.1761975E2,-1.6040085E2,1.1625244E1,-1.23884894E-1,-6.260722E2,5.4977277E2,1.6586157E-2,-3.5181932E-2,-9.067103E2,-5.768208E1,-9.6605225E1,1.0007183E3,-1.3690973E2,-8.018569E2,6.21064E-2,1.656886E-2,-3.3231918E-2,4.388387E-3,7.7529E-2,-5.4842935E0,-2.439099E-2,-1.0664724E-1,1.3930773E-2,7.1830526E-2,-5.287052E-2,7.3347015E2,-1.0591296E3,3.8842905E-2,-7.238053E-2,1.056771E3,-9.408427E2,3.994732E1,-6.575981E2,7.7786084E2,-5.553161E-2,5.7469144E-2,-1.08838275E-1,8.427403E-2,1.1046902E3,1.6599486E2,-5.467682E2,-1.3012756E-1,-2.0664465E2,2.690841E-2,-4.131729E-2,7.4311666E-2,1.0853696E-1,1.6175365E-2,-5.611873E-3,-1.8964136E-2,-1.0367822E-1,-3.664674E-2,1.2864673E2,-2.0530975E2,2.2813395E1,8.939461E2,-2.407959E-2,-1.155386E-1,1.191461E-1,3.9023716E-2,-4.6043497E2,-1.215932E3,5.875661E2,-7.9146765E2,-8.5734595E2,6.699403E-2,-2.0576268E-2,1.0157381E-1,1.248285E-1,4.9763424E-3,-3.348609E2,6.431371E2,-2.6515312E-2,-6.627066E-2,-2.5735512E-2,-2.7256592E-3,5.4347245E-3,1.5220965E-2,3.9760377E-3,-3.0025326E-2,4.0719517E-2,-1.35502E-2,-1.0496541E-2,9.9908546E-2,-8.273873E-2,2.8515495E-2,-8.994463E-2,-1.464866E-1,6.6523254E-2,9.9616945E-3,-1.0089323E-1,-6.9536865E-3,-1.009149E-1,-1.6675562E-2,-5.8482304E-2,5.8245603E-2,1.4365087E-2,9.81839E-2],"categories":[],"categories_nodes":[],"categories_segments":[],"categories_sizes":[],"default_left":[0,0,0,0,0,0,0,0,0,0,0,0,0,0,0,0,0,0,0,0,0,0,0,0,0,0,0,0,0,0,0,0,0,0,0,0,0,0,0,0,0,0,0,0,0,0,0,0,0,0,0,0,0,0,0,0,0,0,0,0,0,0,0,0,0,0,0,0,0,0,0,0,0,0,0,0,0,0,0,0,0,0,0,0,0,0,0,0,0,0,0,0,0,0,0,0,0,0,0,0,0,0,0,0,0,0,0,0,0,0,0,0,0,0,0,0,0,0,0,0,0,0,0,0,0,0,0,0,0,0,0,0,0,0,0,0,0,0,0,0,0,0,0,0,0,0,0,0,0,0,0,0,0,0,0,0,0,0,0,0,0,0,0,0,0,0,0,0,0,0,0,0,0,0,0,0,0,0,0,0,0,0,0,0,0,0,0,0,0,0,0,0,0,0,0],"id":1,"left_children":[1,3,5,7,9,11,13,-1,15,17,19,21,23,25,27,29,31,33,35,37,39,41,43,-1,-1,45,47,-1,49,51,53,55,57,59,61,63,65,67,69,71,73,75,77,-1,79,-1,81,83,-1,-1,-1,85,-1,-1,-1,-1,87,89,-1,-1,-1,91,93,95,97,99,101,-1,103,105,-1,107,109,-1,-1,-1,-1,-1,-1,-1,-1,111,113,-1,-1,-1,-1,115,-1,-1,-1,117,119,121,-1,123,125,127,129,131,-1,133,135,-1,-1,137,139,141,143,145,147,-1,-1,-1,-1,-1,149,-1,-1,-1,-1,-1,151,153,-1,-1,155,157,159,161,163,-1,-1,-1,-1,165,167,169,-1,171,-1,-1,-1,-1,-1,-1,-1,-1,-1,173,175,177,179,-1,-1,-1,-1,181,183,185,187,189,-1,-1,-1,-1,-1,191,193,-1,-1,-1,-1,-1,-1,-1,-1,-1,-1,-1,-1,-1,-1,-1,-1,-1,-1,-1,-1,-1,-1,-1,-1,-1,-1],"loss_changes":[1.617995E7,9.437674E6,8.619479E6,1.0752592E7,8.1277795E6,7.166037E6,3.266962E6,0E0,8.014054E6,8.352328E6,6.210843E6,4.755637E6,1.931155E5,5.9405985E6,9.16952E5,3.109678E6,4.432977E6,1.2373654E7,8.53835E6,6.045107E6,7.293974E6,1.3086515E6,3.301613E6,0E0,0E0,2.2097115E6,8.53363E5,0E0,6.94748E5,1.3420219E6,1.310886E6,3.526709E6,1.8329775E6,2.1406485E6,7.193925E6,8.170768E6,6.2428275E6,1.9571838E6,4.4650315E6,8.644308E6,8.39339E5,1.88755E4,1.3785723E5,0E0,4.315825E5,0E0,1.3126672E6,5.33188E5,0E0,0E0,0E0,1.97013E5,0E0,0E0,0E0,0E0,1.2451575E6,1.1249975E5,0E0,0E0,0E0,4.520087E6,4.210548E6,1.1888366E7,5.051992E6,3.4908588E6,6.3006615E6,0E0,2.5646677E5,2.085551E6,0E0,3.9966775E6,7.8045325E5,0E0,0E0,0E0,0E0,0E0,0E0,0E0,0E0,1.222925E4,1.8733461E5,0E0,0E0,0E0,0E0,2.0937241E6,0E0,0E0,0E0,1.600485E5,9.007144E4,2.53365E6,0E0,2.6477405E6,4.5969465E6,6.800592E6,7.9755375E6,1.915263E6,0E0,4.991509E6,4.075929E6,0E0,0E0,9.92751E5,2.9898444E5,1.9020089E6,4.63613E5,6.3985312E3,3.36041E5,0E0,0E0,0E0,0E0,0E0,2.6763756E5,0E0,0E0,0E0,0E0,0E0,3.058773E6,2.731765E5,0E0,0E0,3.43026E5,6.840828E6,4.5627255E6,3.4912725E6,1.6128905E6,0E0,0E0,0E0,0E0,1.149736E6,3.3220942E6,8.54815E4,0E0,2.9372797E4,0E0,0E0,0E0,0E0,0E0,0E0,0E0,0E0,0E0,2.2321016E3,1.0500944E5,4.202971E5,2.41542E6,0E0,0E0,0E0,0E0,6.255045E6,1.439868E6,1.6111512E5,5.578195E5,8.80057E5,0E0,0E0,0E0,0E0,0E0,1.9456955E6,1.04319625E6,0E0,0E0,0E0,0E0,0E0,0E0,0E0,0E0,0E0,0E0,0E0,0E0,0E0,0E0,0E0,0E0,0E0,0E0,0E0,0E0,0E0,0E0,0E0,0E0,0E0,0E0],"parents":[2147483647,0,0,1,1,2,2,3,3,4,4,5,5,6,6,8,8,9,9,10,10,11,11,12,12,13,13,14,14,15,15,16,16,17,17,18,18,19,19,20,20,21,21,22,22,25,25,26,26,28,28,29,29,30,30,31,31,32,32,33,33,34,34,35,35,36,36,37,37,38,38,39,39,40,40,41,41,42,42,44,44,46,46,47,47,51,51,56,56,57,57,61,61,62,62,63,63,64,64,65,65,66,66,68,68,69,69,71,71,72,72,81,81,82,82,87,87,91,91,92,92,93,93,95,95,96,96,97,97,98,98,99,99,101,101,102,102,105,105,106,106,107,107,108,108,109,109,110,110,116,116,122,122,123,123,126,126,127,127,128,128,129,129,130,130,135,135,136,136,137,137,139,139,149,149,150,150,151,151,152,152,157,157,158,158,159,159,160,160,161,161,167,167,168,168],"right_children":[2,4,6,8,10,12,14,-1,16,18,20,22,24,26,28,30,32,34,36,38,40,42,44,-1,-1,46,48,-1,50,52,54,56,58,60,62,64,66,68,70,72,74,76,78,-1,80,-1,82,84,-1,-1,-1,86,-1,-1,-1,-1,88,90,-1,-1,-1,92,94,96,98,100,102,-1,104,106,-1,108,110,-1,-1,-1,-1,-1,-1,-1,-1,112,114,-1,-1,-1,-1,116,-1,-1,-1,118,120,122,-1,124,126,128,130,132,-1,134,136,-1,-1,138,140,142,144,146,148,-1,-1,-1,-1,-1,150,-1,-1,-1,-1,-1,152,154,-1,-1,156,158,160,162,164,-1,-1,-1,-1,166,168,170,-1,172,-1,-1,-1,-1,-1,-1,-1,-1,-1,174,176,178,180,-1,-1,-1,-1,182,184,186,188,190,-1,-1,-1,-1,-1,192,194,-1,-1,-1,-1,-1,-1,-1,-1,-1,-1,-1,-1,-1,-1,-1,-1,-1,-1,-1,-1,-1,-1,-1,-1,-1,-1],"split_conditions":[8.2198113E-1,1.5393452E-1,2E-1,7.765373E-2,1E0,9.4735783E-1,9.1922843E-1,-1.0595422E-1,2.653152E-1,1.8022905E-1,4.490818E-1,1E0,9.700623E-1,5.388728E-1,4.5034913E-3,5.829146E-1,1E0,2.003339E-1,1E0,1.6934225E-1,1E0,1.1666667E-1,2.713568E-1,-4.0853262E-2,-1.1895123E-1,4.008187E-1,9.047619E-1,7.7903196E-3,8.286924E-1,1.3009764E-1,1E0,2.5847214E-3,3.957722E-1,1.4888488E-1,3.4759894E-2,2.6507753E-1,3E-1,5.3622174E-1,7.9405266E-1,5E-1,2E0,2.960942E-1,2.1998851E-1,7.816013E-2,5.169443E-3,-6.773242E-2,3.6894825E-1,5.879397E-1,2.0483503E-2,1.20504595E-1,1.5707409E-2,2.4623115E-1,-3.9692737E-2,1.5242675E-1,1.4861499E-2,-9.198702E-2,1E0,1E0,3.9967027E-2,-1.13895334E-1,2.245066E-2,7.275708E-1,9.3333334E-1,3.8898164E-1,1E0,4.3739566E-1,9.108487E-2,1.0327212E-1,2.4095348E-1,7.9914784E-1,9.360952E-2,3.0962428E-1,5E0,1.2943484E-1,4.390954E-2,3.1194737E-2,1.13005415E-1,2.4270482E-2,-1.3386633E-2,-8.467493E-3,-9.159438E-2,7.4956924E-1,2.1105528E-1,1.3132964E-1,5.9902634E-2,7.432907E-2,2.0210791E-2,4E-1,1.02120206E-1,-3.2368317E-2,-9.352378E-2,3.9398998E-1,5.5801266E-1,5.1637854E-2,-6.216062E-2,2.4095348E-1,1.6915566E-1,9.170017E-1,2E0,3.3668342E-1,-1.23884894E-1,7.638191E-1,4.1402337E-1,1.6586157E-2,-3.5181932E-2,1.7529215E-1,7.085427E-1,4.9748743E-1,7.6994175E-1,2.8116027E-1,6.432161E-1,6.21064E-2,1.656886E-2,-3.3231918E-2,4.388387E-3,7.7529E-2,9.936818E-2,-2.439099E-2,-1.0664724E-1,1.3930773E-2,7.1830526E-2,-5.287052E-2,2.9883137E-1,7.537688E-2,3.8842905E-2,-7.238053E-2,6.106037E-1,3.3333334E-1,7.4525815E-1,8.4974957E-1,2.6130652E-1,-5.553161E-2,5.7469144E-2,-1.08838275E-1,8.427403E-2,7.8333336E-1,4.696539E-1,1.4836267E-1,-1.3012756E-1,5.527638E-1,2.690841E-2,-4.131729E-2,7.4311666E-2,1.0853696E-1,1.6175365E-2,-5.611873E-3,-1.8964136E-2,-1.0367822E-1,-3.664674E-2,2.7570361E-2,2.2905365E-1,2.0591614E-1,2.7225733E-1,-2.407959E-2,-1.155386E-1,1.191461E-1,3.9023716E-2,1E0,5.113844E-1,7.337754E-1,9.5548534E-1,1E0,6.699403E-2,-2.0576268E-2,1.0157381E-1,1.248285E-1,4.9763424E-3,6.6224635E-1,4.4887504E-1,-2.6515312E-2,-6.627066E-2,-2.5735512E-2,-2.7256592E-3,5.4347245E-3,1.5220965E-2,3.9760377E-3,-3.0025326E-2,4.0719517E-2,-1.35502E-2,-1.0496541E-2,9.9908546E-2,-8.273873E-2,2.8515495E-2,-8.994463E-2,-1.464866E-1,6.6523254E-2,9.9616945E-3,-1.0089323E-1,-6.9536865E-3,-1.009149E-1,-1.6675562E-2,-5.8482304E-2,5.8245603E-2,1.4365087E-2,9.81839E-2],"split_indices":[4,0,10,9,27,4,4,0,6,4,5,28,4,6,8,1,16,5,24,9,22,10,1,0,0,8,4,0,6,0,19,0,8,4,4,0,10,8,4,10,11,0,0,0,0,0,5,1,0,0,0,1,0,0,0,0,28,11,0,0,0,8,7,5,20,5,9,0,0,9,0,4,13,0,0,0,0,0,0,0,0,0,1,0,0,0,0,7,0,0,0,5,0,9,0,0,0,0,11,1,0,1,5,0,0,5,1,1,4,0,1,0,0,0,0,0,0,0,0,0,0,0,5,1,0,0,6,7,9,5,1,0,0,0,0,7,8,6,0,1,0,0,0,0,0,0,0,0,0,0,4,0,0,0,0,0,0,16,9,4,0,15,0,0,0,0,0,4,6,0,0,0,0,0,0,0,0,0,0,0,0,0,0,0,0,0,0,0,0,0,0,0,0,0,0],"split_type":[0,0,0,0,0,0,0,0,0,0,0,0,0,0,0,0,0,0,0,0,0,0,0,0,0,0,0,0,0,0,0,0,0,0,0,0,0,0,0,0,0,0,0,0,0,0,0,0,0,0,0,0,0,0,0,0,0,0,0,0,0,0,0,0,0,0,0,0,0,0,0,0,0,0,0,0,0,0,0,0,0,0,0,0,0,0,0,0,0,0,0,0,0,0,0,0,0,0,0,0,0,0,0,0,0,0,0,0,0,0,0,0,0,0,0,0,0,0,0,0,0,0,0,0,0,0,0,0,0,0,0,0,0,0,0,0,0,0,0,0,0,0,0,0,0,0,0,0,0,0,0,0,0,0,0,0,0,0,0,0,0,0,0,0,0,0,0,0,0,0,0,0,0,0,0,0,0,0,0,0,0,0,0,0,0,0,0,0,0,0,0,0,0,0,0],"sum_hessian":[3.21E2,2.65E2,5.6E1,4.2E1,2.23E2,1.7E1,3.9E1,4E0,3.8E1,1.7E2,5.3E1,1.2E1,5E0,2.3E1,1.6E1,1.5E1,2.3E1,4.4E1,1.26E2,2.1E1,3.2E1,7E0,5E0,2E0,3E0,1.1E1,1.2E1,1E0,1.5E1,6E0,9E0,1.7E1,6E0,8E0,3.6E1,9.4E1,3.2E1,5E0,1.6E1,2.2E1,1E1,5E0,2E0,1E0,4E0,3E0,8E0,1E1,2E0,1.4E1,1E0,5E0,1E0,8E0,1E0,1E0,1.6E1,5E0,1E0,7E0,1E0,7E0,2.9E1,1.6E1,7.8E1,8E0,2.4E1,3E0,2E0,1.5E1,1E0,1.3E1,9E0,7E0,3E0,1E0,4E0,1E0,1E0,1E0,3E0,4E0,4E0,5E0,5E0,3E0,2E0,1.3E1,3E0,2E0,3E0,5E0,2E0,2.7E1,2E0,7E0,9E0,6.3E1,1.5E1,4E0,4E0,5E0,1.9E1,1E0,1E0,1.1E1,4E0,5E0,8E0,3E0,6E0,3E0,1E0,2E0,2E0,5E0,8E0,1E0,4E0,1E0,1E0,1E0,2.6E1,6E0,1E0,1E0,8E0,5.5E1,8E0,1E1,5E0,2E0,2E0,4E0,1E0,7E0,1.2E1,7E0,4E0,3E0,1E0,4E0,1E0,7E0,1E0,2E0,1E0,3E0,3E0,5E0,3E0,5E0,2.1E1,1E0,5E0,6E0,2E0,2.1E1,3.4E1,5E0,3E0,9E0,1E0,1E0,4E0,6E0,1E0,6E0,6E0,3E0,4E0,2E0,1E0,2E0,3E0,1E0,2E0,1E0,4E0,2E0,1.9E1,1.4E1,7E0,1.7E1,1.7E1,4E0,1E0,2E0,1E0,7E0,2E0,5E0,1E0,3E0,3E0],"tree_param":{"num_deleted":"0","num_feature":"29","num_nodes":"195","size_leaf_vector":"1"}},{"base_weights":[3.6837955E1,-6.2123917E1,5.76433E2,-6.066956E2,1.5282594E1,2.3859514E-1,7.788732E2,-7.4705273E2,1.0926785E-1,6.33138E2,-6.930745E1,1.0100441E-1,-3.669851E2,9.840802E2,3.1109322E1,1.4730405E2,-8.8007886E2,8.5468207E2,4.585319E1,7.426466E1,-3.6793176E2,1.91721E2,-8.64527E-2,3.9945966E2,1.1519386E3,5.140522E2,-1.1061272E-1,-7.762041E2,1.02171086E-1,-9.64291E2,6.968251E-2,9.351776E2,-3.7761413E-2,-2.8661588E2,8.0632985E-2,2.2900038E1,9.446008E2,-5.54904E2,2.8609525E2,4.51713E-2,-2.1884204E2,-2.6370278E-2,6.644643E-2,1.2789392E3,6.9708887E2,-4.9103857E2,1.0142963E-1,-9.925168E-2,-1.717893E-2,4.966449E1,-1.0931049E3,1.0443696E3,2.3731702E2,3.3031054E-2,-4.4448868E2,-7.163221E1,3.624528E2,1.0135099E2,1.2087922E-1,-7.4485114E2,-9.7674805E1,-4.4505844E2,7.6929333E2,1.4604125E-3,-3.428672E-2,4.522992E-2,1.43491E-1,8.437311E-2,2.2032226E-2,-1.3385962E-2,-6.026982E-2,-4.1611377E-2,3.436285E2,-1.2162081E3,1.7402068E2,-2.980371E-3,1.1133682E3,-1.8404052E-2,4.3911636E-2,-5.532908E-2,4.9760984E-3,-2.3069347E2,3.910676E2,5.6519135E2,-1.0966456E-1,1.0133301E-3,1.4189319E-2,-1.9837383E2,-1.0926244E3,-8.629324E2,2.9309354E2,-9.286532E-2,5.0928555E-2,9.459038E2,4.190088E1,4.158308E-2,9.961193E-3,-1.4321918E3,-5.48787E2,-2.074901E-2,4.685211E-2,1.1619106E3,1.9261548E-2,2.0795125E2,-4.1903424E2,-1.16819166E-1,5.5594104E2,-1.0355699E-1,7.3467505E2,9.355898E1,-8.5933777E2,-6.378496E2,-1.4563473E-1,-1.1257176E-1,-2.2490788E2,6.496398E2,-5.8240887E-2,3.6231674E2,1.08004674E-1,1.1769653E-2,-5.4845214E-3,-7.116396E-2,-1.5437315E-1,1.643986E2,-8.669409E-2,1.2096967E3,2.4645325E-2,4.472414E2,-6.2434106E2,-4.9748767E2,1.15895666E-1,8.2050037E2,-7.193081E2,2.8254367E2,1.0172597E3,8.09149E2,-3.6537964E2,-9.9526465E-2,-1.5781505E-2,1.249528E1,-7.691681E2,-6.9533447E-3,-2.6782837E-2,-2.774524E-2,8.002079E2,9.81521E-3,4.45323E-2,2.5941553E-2,-1.2817626E-3,1.2885591E-1,4.910144E-2,-8.6545406E-5,8.139529E-2,-1.017172E-1,6.699068E-2,-5.8189765E-2,7.242136E-2,9.348323E-2,-7.9023585E-2,-8.098755E-2,-1.7851915E-2,5.4655034E-2,-3.161056E-2,1.13881074E-1,1.5145158E-2,2.3927283E-2,8.917998E-2,-5.059897E-2,3.7633788E-3,-2.0575244E-2,2.2449536E-2,-8.080962E-2,-2.0940747E-2,9.065148E-2,3.208579E-2],"categories":[],"categories_nodes":[],"categories_segments":[],"categories_sizes":[],"default_left":[0,0,0,0,0,0,0,0,0,0,0,0,0,0,0,0,0,0,0,0,0,0,0,0,0,0,0,0,0,0,0,0,0,0,0,0,0,0,0,0,0,0,0,0,0,0,0,0,0,0,0,0,0,0,0,0,0,0,0,0,0,0,0,0,0,0,0,0,0,0,0,0,0,0,0,0,0,0,0,0,0,0,0,0,0,0,0,0,0,0,0,0,0,0,0,0,0,0,0,0,0,0,0,0,0,0,0,0,0,0,0,0,0,0,0,0,0,0,0,0,0,0,0,0,0,0,0,0,0,0,0,0,0,0,0,0,0,0,0,0,0,0,0,0,0,0,0,0,0,0,0,0,0,0,0,0,0,0,0,0,0,0,0,0,0,0,0,0,0,0,0,0,0,0,0],"id":2,"left_children":[1,3,5,7,9,11,13,15,-1,17,19,-1,21,23,25,27,29,31,33,35,37,39,-1,41,43,45,-1,47,-1,49,-1,51,-1,53,-1,55,57,59,61,-1,63,-1,-1,65,67,69,-1,-1,-1,71,73,75,77,-1,79,81,83,85,-1,87,89,91,93,-1,-1,-1,-1,-1,-1,-1,-1,-1,95,97,99,-1,101,-1,-1,-1,-1,103,105,107,-1,-1,-1,109,111,113,115,-1,-1,117,119,-1,-1,121,123,-1,-1,125,-1,127,129,-1,131,-1,133,135,137,139,-1,-1,141,143,-1,145,-1,-1,-1,-1,-1,147,-1,149,-1,151,153,155,-1,157,159,161,163,165,167,-1,-1,169,171,-1,-1,-1,173,-1,-1,-1,-1,-1,-1,-1,-1,-1,-1,-1,-1,-1,-1,-1,-1,-1,-1,-1,-1,-1,-1,-1,-1,-1,-1,-1,-1,-1,-1],"loss_changes":[1.7230396E7,1.1517149E7,5.832059E6,8.925942E6,1.2587341E7,5.562214E6,5.646902E6,3.93677E6,0E0,3.733985E6,9.116639E6,0E0,3.2235242E6,2.385718E6,5.51159E6,4.8306655E6,4.390186E6,2.436216E6,2.5066218E6,6.4158155E6,8.596413E6,7.3931244E5,0E0,1.5811501E6,3.7932E5,4.0175932E6,0E0,2.21724E5,0E0,3.580798E6,0E0,1.27617E6,0E0,8.285907E5,0E0,4.4234825E6,1.6597225E6,4.617112E6,5.995053E6,0E0,9.186686E4,0E0,0E0,1.4139E6,3.03506E5,3.8970438E4,0E0,0E0,0E0,6.9067675E5,3.955342E6,1.293162E6,4.209339E5,0E0,3.5018488E5,8.0387595E6,9.49428E6,9.656652E3,0E0,7.00516E6,5.336573E6,3.70356E6,1.245017E6,0E0,0E0,0E0,0E0,0E0,0E0,0E0,0E0,0E0,1.1433969E4,2.385378E6,4.3427878E5,0E0,4.9133E5,0E0,0E0,0E0,0E0,6.7789285E6,7.847699E6,8.085985E6,0E0,0E0,0E0,3.167712E6,2.875546E6,7.52798E5,4.124241E6,0E0,0E0,2.34954E5,2.845389E4,0E0,0E0,1.87342E5,1.7308435E6,0E0,0E0,3.58054E5,0E0,5.258215E6,7.633099E6,0E0,9.362046E6,0E0,2.906715E6,4.2365895E6,3.1971125E5,1.034439E6,0E0,0E0,1.3832188E3,1.4783338E6,0E0,2.2072562E4,0E0,0E0,0E0,0E0,0E0,5.384071E4,0E0,1.6078E5,0E0,3.2872228E6,3.7319348E6,6.093225E6,0E0,4.79023E6,1.00311E5,1.911289E6,1.406123E6,2.212E4,4.7238425E5,0E0,0E0,1.8499608E5,4.8683E4,0E0,0E0,0E0,1.168035E5,0E0,0E0,0E0,0E0,0E0,0E0,0E0,0E0,0E0,0E0,0E0,0E0,0E0,0E0,0E0,0E0,0E0,0E0,0E0,0E0,0E0,0E0,0E0,0E0,0E0,0E0,0E0,0E0,0E0,0E0],"parents":[2147483647,0,0,1,1,2,2,3,3,4,4,5,5,6,6,7,7,9,9,10,10,12,12,13,13,14,14,15,15,16,16,17,17,18,18,19,19,20,20,21,21,23,23,24,24,25,25,27,27,29,29,31,31,33,33,35,35,36,36,37,37,38,38,40,40,43,43,44,44,45,45,49,49,50,50,51,51,52,52,54,54,55,55,56,56,57,57,59,59,60,60,61,61,62,62,72,72,73,73,74,74,76,76,81,81,82,82,83,83,87,87,88,88,89,89,90,90,93,93,94,94,97,97,98,98,101,101,103,103,104,104,106,106,108,108,109,109,110,110,111,111,114,114,115,115,117,117,123,123,125,125,127,127,128,128,129,129,131,131,132,132,133,133,134,134,135,135,136,136,139,139,140,140,144,144],"right_children":[2,4,6,8,10,12,14,16,-1,18,20,-1,22,24,26,28,30,32,34,36,38,40,-1,42,44,46,-1,48,-1,50,-1,52,-1,54,-1,56,58,60,62,-1,64,-1,-1,66,68,70,-1,-1,-1,72,74,76,78,-1,80,82,84,86,-1,88,90,92,94,-1,-1,-1,-1,-1,-1,-1,-1,-1,96,98,100,-1,102,-1,-1,-1,-1,104,106,108,-1,-1,-1,110,112,114,116,-1,-1,118,120,-1,-1,122,124,-1,-1,126,-1,128,130,-1,132,-1,134,136,138,140,-1,-1,142,144,-1,146,-1,-1,-1,-1,-1,148,-1,150,-1,152,154,156,-1,158,160,162,164,166,168,-1,-1,170,172,-1,-1,-1,174,-1,-1,-1,-1,-1,-1,-1,-1,-1,-1,-1,-1,-1,-1,-1,-1,-1,-1,-1,-1,-1,-1,-1,-1,-1,-1,-1,-1,-1,-1],"split_conditions":[8.2198113E-1,9.088884E-2,2E0,8E0,1.8623301E-1,1.1294275E-1,1E0,1.02472715E-2,1.0926785E-1,3E0,6.1602527E-1,1.0100441E-1,3.6180905E-1,2.220176E-1,1E0,4.8747912E-1,9.603676E-1,8.291212E-1,5.2153933E-1,9.296482E-1,1E0,3.338898E-1,-8.64527E-2,6.532663E-2,1E0,4.8429495E-1,-1.1061272E-1,5.0861573E-1,1.02171086E-1,6.70445E-2,6.968251E-2,5.780591E-1,-3.7761413E-2,8.040201E-2,8.0632985E-2,7.9626197E-1,1.01E2,9.170017E-1,2.888147E-1,4.51713E-2,5.356117E-1,-2.6370278E-2,6.644643E-2,3.6009744E-1,3.839733E-1,4.5807007E-1,1.0142963E-1,-9.925168E-2,-1.717893E-2,4.2676622E-1,9.698492E-1,9.5E1,3.316583E-1,3.3031054E-2,6.381909E-1,1E0,8.0904526E-1,7.5818494E-2,1.2087922E-1,6E0,3.833816E-1,3E0,7.4717635E-1,1.4604125E-3,-3.428672E-2,4.522992E-2,1.43491E-1,8.437311E-2,2.2032226E-2,-1.3385962E-2,-6.026982E-2,-4.1611377E-2,7.2314763E-1,1E0,3.3744973E-1,-2.980371E-3,9.298831E-1,-1.8404052E-2,4.3911636E-2,-5.532908E-2,4.9760984E-3,1E0,1.8890622E-1,2.0100502E-2,-1.0966456E-1,1.0133301E-3,1.4189319E-2,8.055715E-1,2.7231714E-1,9.53475E-1,1E0,-9.286532E-2,5.0928555E-2,1.3758685E-1,8.744974E-1,4.158308E-2,9.961193E-3,1.18E2,1.1050834E-1,-2.074901E-2,4.685211E-2,7.234348E-1,1.9261548E-2,7.7048916E-1,8E0,-1.16819166E-1,1.34E2,-1.0355699E-1,2.6059875E-1,3.4170854E-1,6.9504404E-1,5.0083473E-3,-1.4563473E-1,-1.1257176E-1,9.574957E-1,8.754371E-2,-5.8240887E-2,8.5410684E-1,1.08004674E-1,1.1769653E-2,-5.4845214E-3,-7.116396E-2,-1.5437315E-1,3.6071223E-1,-8.669409E-2,1E0,2.4645325E-2,3.8417944E-1,9.143856E-1,7.538678E-1,1.15895666E-1,8.079164E-1,2.0603015E-1,9.0225226E-1,1.32E2,3.505843E-2,1E0,-9.9526465E-2,-1.5781505E-2,6.217691E-1,1E0,-6.9533447E-3,-2.6782837E-2,-2.774524E-2,7.336683E-1,9.81521E-3,4.45323E-2,2.5941553E-2,-1.2817626E-3,1.2885591E-1,4.910144E-2,-8.6545406E-5,8.139529E-2,-1.017172E-1,6.699068E-2,-5.8189765E-2,7.242136E-2,9.348323E-2,-7.9023585E-2,-8.098755E-2,-1.7851915E-2,5.4655034E-2,-3.161056E-2,1.13881074E-1,1.5145158E-2,2.3927283E-2,8.917998E-2,-5.059897E-2,3.7633788E-3,-2.0575244E-2,2.2449536E-2,-8.080962E-2,-2.0940747E-2,9.065148E-2,3.208579E-2],"split_indices":[4,6,12,13,6,6,20,6,0,11,0,0,1,9,27,5,0,0,0,1,21,5,0,1,18,6,0,0,0,3,0,4,0,1,0,9,14,0,5,0,0,0,0,9,5,0,0,0,0,0,1,14,1,0,1,18,1,0,0,13,6,12,3,0,0,0,0,0,0,0,0,0,0,17,0,0,5,0,0,0,0,11,6,1,0,0,0,0,9,0,16,0,0,9,0,0,0,14,4,0,0,0,0,3,13,0,14,0,4,1,3,5,0,0,0,3,0,0,0,0,0,0,0,0,0,21,0,3,3,4,0,4,1,9,14,5,28,0,0,0,25,0,0,0,1,0,0,0,0,0,0,0,0,0,0,0,0,0,0,0,0,0,0,0,0,0,0,0,0,0,0,0,0,0,0],"split_type":[0,0,0,0,0,0,0,0,0,0,0,0,0,0,0,0,0,0,0,0,0,0,0,0,0,0,0,0,0,0,0,0,0,0,0,0,0,0,0,0,0,0,0,0,0,0,0,0,0,0,0,0,0,0,0,0,0,0,0,0,0,0,0,0,0,0,0,0,0,0,0,0,0,0,0,0,0,0,0,0,0,0,0,0,0,0,0,0,0,0,0,0,0,0,0,0,0,0,0,0,0,0,0,0,0,0,0,0,0,0,0,0,0,0,0,0,0,0,0,0,0,0,0,0,0,0,0,0,0,0,0,0,0,0,0,0,0,0,0,0,0,0,0,0,0,0,0,0,0,0,0,0,0,0,0,0,0,0,0,0,0,0,0,0,0,0,0,0,0,0,0,0,0,0,0],"sum_hessian":[3.21E2,2.72E2,4.9E1,3.3E1,2.39E2,1.3E1,3.6E1,3.1E1,2E0,2.8E1,2.11E2,3E0,1E1,2.8E1,8E0,4E0,2.7E1,2E1,8E0,1.43E2,6.8E1,5E0,5E0,7E0,2.1E1,6E0,2E0,2E0,2E0,2.6E1,1E0,1.9E1,1E0,6E0,2E0,1.36E2,7E0,5.3E1,1.5E1,3E0,2E0,2E0,5E0,1.5E1,6E0,2E0,4E0,1E0,1E0,3E0,2.3E1,1.6E1,3E0,1E0,5E0,1.07E2,2.9E1,2E0,5E0,3.7E1,1.6E1,6E0,9E0,1E0,1E0,3E0,1.2E1,4E0,2E0,1E0,1E0,1E0,2E0,2.1E1,2E0,1E0,1.5E1,1E0,2E0,4E0,1E0,8E1,2.7E1,2.6E1,3E0,1E0,1E0,1.5E1,2.2E1,5E0,1.1E1,4E0,2E0,7E0,2E0,1E0,1E0,1.5E1,6E0,1E0,1E0,1.4E1,1E0,2.4E1,5.6E1,2E0,2.5E1,2E0,2.4E1,1.1E1,4E0,1.1E1,1.1E1,3E0,2E0,8E0,3E0,2E0,5E0,1E0,1E0,3E0,1.2E1,2E0,4E0,1.3E1,1E0,1.9E1,5E0,5.4E1,2E0,2.1E1,4E0,1E1,1.4E1,4E0,7E0,3E0,1E0,2E0,9E0,1E0,1E0,1E0,7E0,1E0,1E0,1E0,1E0,1.1E1,2E0,9E0,1E1,4E0,1E0,5.1E1,3E0,2E1,1E0,3E0,1E0,7E0,3E0,1.2E1,2E0,1E0,3E0,5E0,2E0,1E0,1E0,8E0,1E0,5E0,2E0],"tree_param":{"num_deleted":"0","num_feature":"29","num_nodes":"175","size_leaf_vector":"1"}},{"base_weights":[-2.8349417E1,-1.18559425E2,4.7558942E2,-6.2737384E2,-6.821072E1,2.873991E2,1.0475754E3,-8.799391E2,5.588749E2,2.5523048E2,-1.7343655E2,-9.783396E-2,4.2005347E2,1.1112811E3,1.7340612E-2,-3.6069763E2,-1.4150348E-1,1.0783226E-1,-1.468645E2,6.681863E2,-1.9260088E2,9.513898E0,-4.9504254E2,6.409666E2,-2.1841736E2,1.2209806E-1,4.1175585E-2,5.4651505E1,-1.20505884E-1,-2.0747973E-2,-1.2817016E-3,-5.4498517E2,9.042878E2,3.0152664E2,-6.172663E2,-9.022483E2,8.017205E1,-4.7749535E1,-6.857651E2,3.2840674E2,1.0042992E3,8.784129E-2,-6.024265E2,-4.6252216E2,5.6089487E-2,-8.888721E-2,9.519247E1,-2.7842099E-2,1.0059739E3,5.896361E2,-2.2891023E2,9.3600385E-2,-7.728459E2,-9.044572E1,-1.121271E3,-2.175901E2,2.7895276E2,-6.78251E2,3.609835E2,-5.313966E2,-1.312803E3,-3.7956223E2,6.8471643E2,1.0814277E3,7.7942503E-3,6.7729004E-2,-8.819989E2,-2.0696215E-2,-5.6390814E-2,1.7259093E-2,-2.9802246E-3,1.6410767E2,1.0692916E3,-3.810655E-2,8.799447E2,-4.6083685E-2,1.5662866E-2,-9.3203766E2,8.07515E-2,-1.7851025E-2,4.284167E-3,-1.1972733E-1,-3.326288E-2,7.831462E1,-1.1931251E3,1.2962134E-1,1.633312E2,-8.6481433E2,4.0712804E-2,-4.6517877E2,7.3796625E2,4.4001423E-2,-5.9249493E2,-2.8790735E-2,-1.4049265E-1,-2.2372232E1,-5.5256415E-2,8.682005E2,-9.3974525E1,1.1581594E3,1.570553E-2,-1.338529E-2,-9.843811E2,6.2544174E-2,-3.7928026E-2,1.139095E3,2.009694E2,9.7719196E2,9.960693E-3,5.6732494E-2,-1.0796582E3,-1.2358641E-1,2.7505945E2,-1.2538223E-1,-2.9307593E-2,-8.889425E1,6.168155E2,-1.2210537E-1,-2.0331158E2,-2.7239502E-3,-5.6785367E-2,1.0321686E3,-2.9256191E-2,4.9068347E-2,-6.3391235E2,-8.474243E-3,5.1184082E-3,1.00442487E3,2.6094344E-2,-1.5556518E-2,1.4603393E-3,1.3341671E-1,5.6060623E-2,-1.0800047E-1,-2.5313133E-2,1.1797935E3,1.42213255E-2,1.4051147E-3,2.8740294E-2,2.4644092E-2,1.05791025E-1,-1.1923405E3,1.9260583E-2,-1.9759804E2,1.0174247E3,1.11940466E-1,-2.10543E2,1.0922621E3,2.9042648E2,1.0132812E-3,-2.7783731E-2,1.097742E-1,2.8657677E-2,-7.391605E2,-6.221896E1,4.355345E-2,1.1448741E-1,1.2700984E-1,4.7847338E-2,-1.279494E-1,-4.7533046E-2,-6.339688E-2,5.9075046E-2,-9.197951E-2,1.2555093E-1,-3.0877504E-2,1.0711666E-1,1.3925402E-2,1.1939813E-1,1.2127805E-1,-4.122707E-3,4.2138573E-2,-7.901906E-2,6.954617E-2,-5.043836E-2],"categories":[],"categories_nodes":[],"categories_segments":[],"categories_sizes":[],"default_left":[0,0,0,0,0,0,0,0,0,0,0,0,0,0,0,0,0,0,0,0,0,0,0,0,0,0,0,0,0,0,0,0,0,0,0,0,0,0,0,0,0,0,0,0,0,0,0,0,0,0,0,0,0,0,0,0,0,0,0,0,0,0,0,0,0,0,0,0,0,0,0,0,0,0,0,0,0,0,0,0,0,0,0,0,0,0,0,0,0,0,0,0,0,0,0,0,0,0,0,0,0,0,0,0,0,0,0,0,0,0,0,0,0,0,0,0,0,0,0,0,0,0,0,0,0,0,0,0,0,0,0,0,0,0,0,0,0,0,0,0,0,0,0,0,0,0,0,0,0,0,0,0,0,0,0,0,0,0,0,0,0,0,0,0,0,0,0,0,0,0,0,0,0,0,0],"id":3,"left_children":[1,3,5,7,9,11,13,15,17,19,21,-1,23,25,-1,27,-1,-1,29,31,33,35,37,39,41,-1,-1,43,-1,-1,-1,45,47,49,51,53,55,57,59,61,63,-1,65,67,-1,-1,69,-1,71,73,75,-1,77,79,81,83,85,87,89,91,93,95,97,99,-1,-1,101,-1,-1,-1,-1,103,105,-1,107,-1,-1,109,-1,-1,-1,-1,-1,111,113,-1,115,117,-1,119,121,-1,123,-1,-1,125,-1,127,129,131,-1,-1,133,-1,-1,135,137,139,-1,-1,141,-1,143,-1,-1,145,147,-1,149,-1,-1,151,-1,-1,153,-1,-1,155,-1,-1,-1,-1,-1,-1,-1,157,-1,-1,-1,-1,-1,159,-1,161,163,-1,165,167,169,-1,-1,-1,-1,171,173,-1,-1,-1,-1,-1,-1,-1,-1,-1,-1,-1,-1,-1,-1,-1,-1,-1,-1,-1,-1],"loss_changes":[1.4967373E7,7.104669E6,5.081038E6,7.981906E6,8.723031E6,6.959278E6,4.75572E5,5.324322E6,1.991341E6,1.1779571E7,1.1360436E7,0E0,5.2176755E6,3.41367E5,0E0,4.2743145E6,0E0,0E0,2.1716688E4,9.945065E6,6.691127E6,8.06084E6,5.938874E6,2.736388E6,4.7411085E6,0E0,0E0,2.615768E6,0E0,0E0,0E0,1.4055061E6,3.647506E6,2.4273322E6,4.83156E6,1.4988145E6,6.9266645E6,5.9143855E6,4.045328E6,4.295992E6,7.73093E5,0E0,3.4595565E6,1.284325E4,0E0,0E0,3.4166797E4,0E0,1.210452E6,3.153347E6,6.086807E5,0E0,4.777921E6,4.286136E4,2.1323E4,1.3660713E7,8.0214955E6,2.174518E6,4.7035715E6,2.694122E6,4.45265E5,3.584052E5,1.65324E6,5.98321E5,0E0,0E0,4.044145E5,0E0,0E0,0E0,0E0,9.892679E5,1.22576E6,0E0,5.097505E5,0E0,0E0,3.932567E6,0E0,0E0,0E0,0E0,0E0,9.906577E6,2.33472E5,0E0,7.3751695E6,1.636972E6,0E0,2.0935888E5,3.33381E6,0E0,2.060686E6,0E0,0E0,1.8100629E4,0E0,4.824105E5,2.233394E4,3.03796E5,0E0,0E0,1.46166E5,0E0,0E0,7.24794E5,4.4429695E4,1.52183E5,0E0,0E0,2.236715E6,0E0,1.1780229E7,0E0,0E0,6.409181E6,3.25193E6,0E0,6.644367E4,0E0,0E0,7.6543E4,0E0,0E0,2.240459E6,0E0,0E0,6.06695E4,0E0,0E0,0E0,0E0,0E0,0E0,0E0,7.22276E5,0E0,0E0,0E0,0E0,0E0,2.04188E5,0E0,7.5987745E6,7.1507E6,0E0,5.241043E6,7.06187E5,4.63853E6,0E0,0E0,0E0,0E0,2.228102E6,2.6959165E6,0E0,0E0,0E0,0E0,0E0,0E0,0E0,0E0,0E0,0E0,0E0,0E0,0E0,0E0,0E0,0E0,0E0,0E0,0E0,0E0],"parents":[2147483647,0,0,1,1,2,2,3,3,4,4,5,5,6,6,7,7,8,8,9,9,10,10,12,12,13,13,15,15,18,18,19,19,20,20,21,21,22,22,23,23,24,24,27,27,31,31,32,32,33,33,34,34,35,35,36,36,37,37,38,38,39,39,40,40,42,42,43,43,46,46,48,48,49,49,50,50,52,52,53,53,54,54,55,55,56,56,57,57,58,58,59,59,60,60,61,61,62,62,63,63,66,66,71,71,72,72,74,74,77,77,83,83,84,84,86,86,87,87,89,89,90,90,92,92,95,95,97,97,98,98,99,99,102,102,105,105,106,106,107,107,110,110,112,112,115,115,116,116,118,118,121,121,124,124,127,127,135,135,141,141,143,143,144,144,146,146,147,147,148,148,153,153,154,154],"right_children":[2,4,6,8,10,12,14,16,18,20,22,-1,24,26,-1,28,-1,-1,30,32,34,36,38,40,42,-1,-1,44,-1,-1,-1,46,48,50,52,54,56,58,60,62,64,-1,66,68,-1,-1,70,-1,72,74,76,-1,78,80,82,84,86,88,90,92,94,96,98,100,-1,-1,102,-1,-1,-1,-1,104,106,-1,108,-1,-1,110,-1,-1,-1,-1,-1,112,114,-1,116,118,-1,120,122,-1,124,-1,-1,126,-1,128,130,132,-1,-1,134,-1,-1,136,138,140,-1,-1,142,-1,144,-1,-1,146,148,-1,150,-1,-1,152,-1,-1,154,-1,-1,156,-1,-1,-1,-1,-1,-1,-1,158,-1,-1,-1,-1,-1,160,-1,162,164,-1,166,168,170,-1,-1,-1,-1,172,174,-1,-1,-1,-1,-1,-1,-1,-1,-1,-1,-1,-1,-1,-1,-1,-1,-1,-1,-1,-1],"split_conditions":[8.2198113E-1,7.395857E-2,1E0,7.626008E-1,2.713299E-1,6.666667E-2,8.5410684E-1,3.8155243E-1,8.497984E-1,3.7880528E-1,6.1441535E-1,-9.783396E-2,1E0,3E0,1.7340612E-2,6.627713E-1,-1.4150348E-1,1.0783226E-1,3.3744973E-1,1.9052419E-1,3.997966E-1,3.854169E-2,2.9149914E-1,9.1922843E-1,1.4908156E-1,1.2209806E-1,4.1175585E-2,1.2550403E-1,-1.20505884E-1,-2.0747973E-2,-1.2817016E-3,6.2124556E-1,1.2186978E-1,6.5E-1,3.8425982E-2,9.576613E-2,2.6764113E-1,3.505843E-1,6.726944E-1,4.519829E-1,6.149363E-1,8.784129E-2,1.743251E-1,2.9883137E-1,5.6089487E-2,-8.888721E-2,4.078116E-2,-2.7842099E-2,4.078116E-2,2.4713682E-2,4.6824595E-1,9.3600385E-2,9.728408E-1,3.0241242E-1,7.923148E-1,7.5734556E-1,2.9889113E-1,9.289315E-1,2.1478802E-1,2.4570802E-2,9.51586E-2,1.5771887E-1,8E-1,8.2468253E-1,7.7942503E-3,6.7729004E-2,2.7497086E-1,-2.0696215E-2,-5.6390814E-2,1.7259093E-2,-2.9802246E-3,2.7570361E-2,7.54591E-1,-3.810655E-2,9.3279725E-1,-4.6083685E-2,1.5662866E-2,1.6694492E-2,8.07515E-2,-1.7851025E-2,4.284167E-3,-1.1972733E-1,-3.326288E-2,1.3333334E-1,8.230902E-1,1.2962134E-1,7.383335E-1,3.1698328E-1,4.0712804E-2,6.7590725E-1,6.627713E-1,4.4001423E-2,4.006678E-2,-2.8790735E-2,-1.4049265E-1,5.169443E-3,-5.5256415E-2,5.496841E-1,3.159104E-3,3.227235E-1,1.570553E-2,-1.338529E-2,7.975302E-1,6.2544174E-2,-3.7928026E-2,2.653152E-1,2.3520964E-1,1.4406268E-1,9.960693E-3,5.6732494E-2,9.682805E-1,-1.2358641E-1,3E0,-1.2538223E-1,-2.9307593E-2,7.765373E-2,3.3212778E-1,-1.2210537E-1,7.5818494E-2,-2.7239502E-3,-5.6785367E-2,2.860425E-1,-2.9256191E-2,4.9068347E-2,9.1039634E-1,-8.474243E-3,5.1184082E-3,3.785522E-1,2.6094344E-2,-1.5556518E-2,1.4603393E-3,1.3341671E-1,5.6060623E-2,-1.0800047E-1,-2.5313133E-2,2.860425E-1,1.42213255E-2,1.4051147E-3,2.8740294E-2,2.4644092E-2,1.05791025E-1,1E0,1.9260583E-2,4.8334903E-1,2.5847214E-3,1.11940466E-1,5.78629E-1,1.1050833E-2,1E0,1.0132812E-3,-2.7783731E-2,1.097742E-1,2.8657677E-2,5.3418547E-2,9.5146465E-1,4.355345E-2,1.1448741E-1,1.2700984E-1,4.7847338E-2,-1.279494E-1,-4.7533046E-2,-6.339688E-2,5.9075046E-2,-9.197951E-2,1.2555093E-1,-3.0877504E-2,1.0711666E-1,1.3925402E-2,1.1939813E-1,1.2127805E-1,-4.122707E-3,4.2138573E-2,-7.901906E-2,6.954617E-2,-5.043836E-2],"split_indices":[4,6,26,2,6,10,0,2,2,0,2,0,20,11,0,5,0,0,0,2,9,9,0,4,3,0,0,2,0,0,0,8,5,10,3,2,2,5,4,8,3,0,0,5,0,0,0,0,0,4,2,0,9,0,3,3,2,2,4,8,5,6,7,6,0,0,3,0,0,0,0,0,5,0,0,0,0,5,0,0,0,0,0,10,0,0,3,9,0,2,5,0,5,0,0,0,0,0,0,8,0,0,0,0,0,6,0,4,0,0,5,0,12,0,0,9,4,0,0,0,0,0,0,0,0,0,0,3,0,0,0,0,0,0,0,0,0,0,0,0,0,20,0,8,0,0,2,4,11,0,0,0,0,3,0,0,0,0,0,0,0,0,0,0,0,0,0,0,0,0,0,0,0,0,0],"split_type":[0,0,0,0,0,0,0,0,0,0,0,0,0,0,0,0,0,0,0,0,0,0,0,0,0,0,0,0,0,0,0,0,0,0,0,0,0,0,0,0,0,0,0,0,0,0,0,0,0,0,0,0,0,0,0,0,0,0,0,0,0,0,0,0,0,0,0,0,0,0,0,0,0,0,0,0,0,0,0,0,0,0,0,0,0,0,0,0,0,0,0,0,0,0,0,0,0,0,0,0,0,0,0,0,0,0,0,0,0,0,0,0,0,0,0,0,0,0,0,0,0,0,0,0,0,0,0,0,0,0,0,0,0,0,0,0,0,0,0,0,0,0,0,0,0,0,0,0,0,0,0,0,0,0,0,0,0,0,0,0,0,0,0,0,0,0,0,0,0,0,0,0,0,0,0],"sum_hessian":[3.27E2,2.78E2,4.9E1,2.4E1,2.54E2,3.8E1,1.1E1,2E1,4E0,6.2E1,1.92E2,3E0,3.5E1,1E1,1E0,1.1E1,9E0,2E0,2E0,3.2E1,3E1,1.23E2,6.9E1,2.6E1,9E0,8E0,2E0,8E0,3E0,1E0,1E0,5E0,2.7E1,1.4E1,1.6E1,8E0,1.15E2,2.1E1,4.8E1,1.5E1,1.1E1,2E0,7E0,4E0,4E0,3E0,2E0,2E0,2.5E1,9E0,5E0,1E0,1.5E1,2E0,6E0,4.6E1,6.9E1,8E0,1.3E1,4E1,8E0,5E0,1E1,1E1,1E0,1E0,6E0,2E0,2E0,1E0,1E0,2E0,2.3E1,2E0,7E0,3E0,2E0,1.4E1,1E0,1E0,1E0,5E0,1E0,3.6E1,1E1,6E0,6.3E1,7E0,1E0,4E0,9E0,2E0,3.8E1,1E0,7E0,2E0,3E0,8E0,2E0,9E0,1E0,1E0,5E0,1E0,1E0,2.1E1,2E0,6E0,1E0,1E0,1.3E1,4E0,3.2E1,9E0,1E0,4.1E1,2.2E1,4E0,3E0,1E0,3E0,7E0,2E0,1E0,3.7E1,1E0,1E0,6E0,2E0,1E0,1E0,6E0,3E0,4E0,1E0,2E1,1E0,1E0,1E0,1E0,5E0,1.2E1,1E0,2E1,1.2E1,3E0,3.8E1,8E0,1.4E1,1E0,2E0,6E0,1E0,3.1E1,6E0,2E0,4E0,1.7E1,3E0,1E1,2E0,1.3E1,7E0,1E0,1.1E1,3.6E1,2E0,1E0,7E0,3E0,1.1E1,1E0,3E1,2E0,4E0],"tree_param":{"num_deleted":"0","num_feature":"29","num_nodes":"175","size_leaf_vector":"1"}},{"base_weights":[7.707935E1,-1.2984766E1,4.786455E2,-7.0474384E2,5.8632484E1,6.505858E2,-2.2034612E2,6.80347E2,-9.350114E2,-9.377423E2,9.379856E1,-7.2754964E-2,6.973788E2,-5.476682E2,9.441762E-2,1.0216428E-1,-1.7177038E-2,-1.1972623E3,4.7887036E2,-1.8389123E-2,-1.01916514E-1,2.343572E2,-1.4949883E2,9.19428E2,3.451311E2,5.914017E-2,-7.399428E2,-1.3023374E3,2.9450707E-2,-2.0746935E-2,7.768067E-2,3.2977856E2,-4.057496E2,-3.835093E2,5.596517E2,-2.7419043E2,1.0258851E3,-7.587276E1,7.316218E2,9.400415E1,-9.916425E2,-6.969702E-2,-1.434991E-1,-8.4267E2,3.8565283E2,3.883691E2,-8.0214044E2,-2.4042519E2,-1.0380502E3,-9.311014E-2,7.6557837E2,-4.8922423E-2,7.7938596E-3,1.1288407E3,-1.0540299E2,2.2723036E2,-5.87335E2,-5.369978E2,1.1159015E-1,-8.473815E-3,2.2574438E-2,-3.885292E-2,-1.155182E-1,2.4642859E-2,-1.1097754E-1,4.7716293E2,-2.3898544E2,-4.914005E-2,6.1689746E2,3.1195812E-2,-1.1675658E3,2.7532184E2,-5.1353284E2,-4.3855362E2,-1.4645384E-1,1.0828448E3,-1.0230656E2,1.2882352E3,7.3775635E2,-3.2374915E-2,1.6564464E-2,4.3534037E-2,-1.9536311E2,-1.3384619E-2,-6.9388255E-2,-1.5555737E-2,-6.499393E-2,3.0672726E2,1.01028796E3,-9.851417E2,3.0722247E2,8.797961E-3,7.050851E-2,-3.707152E-2,-1.320439E-1,-8.188247E-2,4.5221112E2,-9.009317E2,-1.7793713E2,-5.9567656E-2,-8.287182E-3,1.1584867E3,4.975073E-3,-9.507054E-2,2.575143E2,1.3339734E-1,3.239507E-2,1.5704747E-2,7.9071405E2,1.4602661E-3,-3.0764733E-2,-7.8365857E2,3.7354807E2,4.978409E2,1.4450204E-1,-1.19664825E-1,1.4194885E-2,8.443601E-2,-4.3602226E1,1.1117849E-1,2.3146065E2,-1.026415E3,4.906589E-2,5.847404E2,-3.469238E2,1.4857312E-2,1.2302651E-1,-2.5660278E-2,4.5019425E-2,2.289088E-2,8.382706E-2,-1.1975112E-1,-1.0858642E-2,-4.830357E-3,4.7638804E-2,7.874059E-2,-3.5053186E-2,3.1773705E-2,-2.5168534E-2,5.7652622E-2,-5.0496273E-2,-1.3248174E-1,-1.6464667E-2,7.1419604E-2,9.818677E-3,-5.0491218E-2,2.9276654E-2],"categories":[],"categories_nodes":[],"categories_segments":[],"categories_sizes":[],"default_left":[0,0,0,0,0,0,0,0,0,0,0,0,0,0,0,0,0,0,0,0,0,0,0,0,0,0,0,0,0,0,0,0,0,0,0,0,0,0,0,0,0,0,0,0,0,0,0,0,0,0,0,0,0,0,0,0,0,0,0,0,0,0,0,0,0,0,0,0,0,0,0,0,0,0,0,0,0,0,0,0,0,0,0,0,0,0,0,0,0,0,0,0,0,0,0,0,0,0,0,0,0,0,0,0,0,0,0,0,0,0,0,0,0,0,0,0,0,0,0,0,0,0,0,0,0,0,0,0,0,0,0,0,0,0,0,0,0,0,0,0,0,0,0,0,0,0,0],"id":4,"left_children":[1,3,5,7,9,11,13,15,17,19,21,-1,23,25,-1,-1,-1,27,29,-1,-1,31,33,35,37,-1,39,41,-1,-1,-1,43,45,47,49,51,53,55,57,59,61,-1,-1,63,65,67,69,71,73,-1,75,-1,-1,77,79,81,83,85,-1,-1,-1,-1,-1,-1,-1,87,89,-1,91,-1,93,95,97,99,-1,101,103,105,107,-1,-1,-1,109,-1,-1,-1,-1,111,113,115,117,-1,-1,-1,-1,-1,119,121,123,-1,-1,125,-1,-1,127,-1,-1,-1,129,-1,-1,131,133,135,-1,-1,-1,-1,137,-1,139,141,-1,143,145,-1,-1,-1,-1,-1,-1,-1,-1,-1,-1,-1,-1,-1,-1,-1,-1,-1,-1,-1,-1,-1,-1],"loss_changes":[1.1254059E7,1.2674501E7,6.993887E6,8.290729E6,8.216912E6,3.473786E6,5.0911815E6,1.3387849E6,8.35996E6,3.0363E5,7.729484E6,0E0,3.202412E6,2.6277455E6,0E0,0E0,0E0,3.205006E6,9.791058E5,0E0,0E0,8.868228E6,1.398837E7,3.712154E6,3.147078E6,0E0,1.982357E6,3.65026E5,0E0,0E0,0E0,8.513691E6,6.292373E6,5.650655E6,7.1595345E6,2.6528838E5,3.030798E6,1.6837185E6,5.474284E6,8.977182E4,2.41608E5,0E0,0E0,2.018905E6,6.97332E6,1.7105099E6,5.656791E6,7.606674E6,2.170181E6,0E0,5.342448E6,0E0,0E0,4.83338E5,2.3117394E5,7.006709E5,1.00398875E5,2.81385E4,0E0,0E0,0E0,0E0,0E0,0E0,0E0,9.230786E6,6.823561E6,0E0,2.17831E5,0E0,7.28664E5,4.047595E6,4.390019E6,2.8594988E5,0E0,1.036395E6,2.07645E6,2.29428E5,1.525975E5,0E0,0E0,0E0,7.521999E4,0E0,0E0,0E0,0E0,6.1944315E6,4.850046E6,1.838573E6,1.9212274E6,0E0,0E0,0E0,0E0,0E0,2.2178868E6,3.297561E6,2.7805068E6,0E0,0E0,7.59586E5,0E0,0E0,6.108215E5,0E0,0E0,0E0,2.1853E4,0E0,0E0,1.2668685E6,3.363518E6,3.469579E6,0E0,0E0,0E0,0E0,6.0629006E5,0E0,3.848726E6,3.639178E6,0E0,1.8182388E5,1.8659034E6,0E0,0E0,0E0,0E0,0E0,0E0,0E0,0E0,0E0,0E0,0E0,0E0,0E0,0E0,0E0,0E0,0E0,0E0,0E0,0E0,0E0,0E0],"parents":[2147483647,0,0,1,1,2,2,3,3,4,4,5,5,6,6,7,7,8,8,9,9,10,10,12,12,13,13,17,17,18,18,21,21,22,22,23,23,24,24,26,26,27,27,31,31,32,32,33,33,34,34,35,35,36,36,37,37,38,38,39,39,40,40,43,43,44,44,45,45,46,46,47,47,48,48,50,50,53,53,54,54,55,55,56,56,57,57,65,65,66,66,68,68,70,70,71,71,72,72,73,73,75,75,76,76,77,77,78,78,82,82,87,87,88,88,89,89,90,90,96,96,97,97,98,98,101,101,104,104,108,108,111,111,112,112,113,113,118,118,120,120,121,121,123,123,124,124],"right_children":[2,4,6,8,10,12,14,16,18,20,22,-1,24,26,-1,-1,-1,28,30,-1,-1,32,34,36,38,-1,40,42,-1,-1,-1,44,46,48,50,52,54,56,58,60,62,-1,-1,64,66,68,70,72,74,-1,76,-1,-1,78,80,82,84,86,-1,-1,-1,-1,-1,-1,-1,88,90,-1,92,-1,94,96,98,100,-1,102,104,106,108,-1,-1,-1,110,-1,-1,-1,-1,112,114,116,118,-1,-1,-1,-1,-1,120,122,124,-1,-1,126,-1,-1,128,-1,-1,-1,130,-1,-1,132,134,136,-1,-1,-1,-1,138,-1,140,142,-1,144,146,-1,-1,-1,-1,-1,-1,-1,-1,-1,-1,-1,-1,-1,-1,-1,-1,-1,-1,-1,-1,-1,-1],"split_conditions":[8.2198113E-1,8.665627E-2,1E0,1.02472715E-2,2.4713682E-2,3.3333335E-2,7E0,4.120603E-1,7.626008E-1,3.8175608E-3,6.1441535E-1,-7.2754964E-2,5.854544E-1,1.0050251E-2,9.441762E-2,1.0216428E-1,-1.7177038E-2,8.333333E-1,3.3744973E-1,-1.8389123E-2,-1.01916514E-1,8.5E-1,7.638191E-1,7.13049E-2,5.6083447E-1,5.914017E-2,3.3215725E-1,1.7010769E-1,2.9450707E-2,-2.0746935E-2,7.768067E-2,3.517588E-2,3.0653265E-1,8.5410684E-1,4.5862906E-2,2.9149914E-1,9.6996033E-1,1E0,1.3699023E-1,5.169443E-3,3.3563906E-1,-6.969702E-2,-1.434991E-1,1.6306527E-1,8.740705E-1,6.609778E-2,1.6375327E-1,3.4170854E-1,3.411694E-1,-9.311014E-2,6.8101615E-1,-4.8922423E-2,7.7938596E-3,5.879397E-1,1.9873635E-1,6.166667E-1,4.5807007E-1,3.159104E-3,1.1159015E-1,-8.473815E-3,2.2574438E-2,-3.885292E-2,-1.155182E-1,2.4642859E-2,-1.1097754E-1,6.8333334E-1,2.3185484E-1,-4.914005E-2,3.2452613E-2,3.1195812E-2,8.518145E-2,5.509872E-2,3.5E-1,7.9277104E-1,-1.4645384E-1,7.1971065E-1,6.989831E-1,8.8713384E-1,6.432161E-1,-3.2374915E-2,1.6564464E-2,4.3534037E-2,5.356117E-1,-1.3384619E-2,-6.9388255E-2,-1.5555737E-2,-6.499393E-2,1.6692821E-2,2.4899483E-1,8.743719E-1,3.3835644E-1,8.797961E-3,7.050851E-2,-3.707152E-2,-1.320439E-1,-8.188247E-2,1.4510229E-1,9.7429436E-1,1.2625234E-1,-5.9567656E-2,-8.287182E-3,6.666667E-2,4.975073E-3,-9.507054E-2,1.3584147E-1,1.3339734E-1,3.239507E-2,1.5704747E-2,5.1666665E-1,1.4602661E-3,-3.0764733E-2,5.4796094E-1,1.7452767E-1,8E-1,1.4450204E-1,-1.19664825E-1,1.4194885E-2,8.443601E-2,3.7147176E-1,1.1117849E-1,2.4623115E-1,1E0,4.906589E-2,5.358989E-1,8.7247986E-1,1.4857312E-2,1.2302651E-1,-2.5660278E-2,4.5019425E-2,2.289088E-2,8.382706E-2,-1.1975112E-1,-1.0858642E-2,-4.830357E-3,4.7638804E-2,7.874059E-2,-3.5053186E-2,3.1773705E-2,-2.5168534E-2,5.7652622E-2,-5.0496273E-2,-1.3248174E-1,-1.6464667E-2,7.1419604E-2,9.818677E-3,-5.0491218E-2,2.9276654E-2],"split_indices":[4,6,22,6,4,10,13,1,2,4,2,0,8,1,0,0,0,10,0,0,0,7,1,8,3,0,2,8,0,0,0,1,1,0,8,0,9,20,0,0,9,0,0,6,3,9,4,1,4,0,3,0,0,1,0,7,0,0,0,0,0,0,0,0,0,7,2,0,0,0,2,9,7,9,0,4,3,0,1,0,0,0,0,0,0,0,0,9,0,1,4,0,0,0,0,0,3,2,8,0,0,10,0,0,0,0,0,0,10,0,0,0,8,7,0,0,0,0,2,0,1,19,0,0,2,0,0,0,0,0,0,0,0,0,0,0,0,0,0,0,0,0,0,0,0,0,0],"split_type":[0,0,0,0,0,0,0,0,0,0,0,0,0,0,0,0,0,0,0,0,0,0,0,0,0,0,0,0,0,0,0,0,0,0,0,0,0,0,0,0,0,0,0,0,0,0,0,0,0,0,0,0,0,0,0,0,0,0,0,0,0,0,0,0,0,0,0,0,0,0,0,0,0,0,0,0,0,0,0,0,0,0,0,0,0,0,0,0,0,0,0,0,0,0,0,0,0,0,0,0,0,0,0,0,0,0,0,0,0,0,0,0,0,0,0,0,0,0,0,0,0,0,0,0,0,0,0,0,0,0,0,0,0,0,0,0,0,0,0,0,0,0,0,0,0,0,0],"sum_hessian":[3.1E2,2.54E2,5.6E1,2.3E1,2.31E2,4.5E1,1.1E1,3E0,2E1,7E0,2.24E2,1E0,4.4E1,9E0,2E0,2E0,1E0,1.7E1,3E0,1E0,6E0,1.42E2,8.2E1,2.6E1,1.8E1,1E0,8E0,1.6E1,1E0,1E0,2E0,1.24E2,1.8E1,6.2E1,2E1,2E0,2.4E1,9E0,9E0,2E0,6E0,4E0,1.2E1,5E0,1.19E2,6E0,1.2E1,5.2E1,1E1,2E0,1.8E1,1E0,1E0,2.2E1,2E0,6E0,3E0,2E0,7E0,1E0,1E0,2E0,4E0,1E0,4E0,1.04E2,1.5E1,1E0,5E0,3E0,9E0,1.8E1,3.4E1,5E0,5E0,1.3E1,5E0,1.4E1,8E0,1E0,1E0,4E0,2E0,1E0,2E0,1E0,1E0,8E1,2.4E1,6E0,9E0,1E0,4E0,2E0,7E0,2E0,1.6E1,1.5E1,1.9E1,3E0,2E0,1.2E1,1E0,1E0,4E0,1.3E1,1E0,1E0,7E0,1E0,1E0,4E0,7.6E1,1.2E1,1.2E1,5E0,1E0,3E0,6E0,3E0,1.3E1,1.4E1,1E0,3E0,1.6E1,1E0,1.1E1,1E0,3E0,1E0,6E0,2E0,2E0,1.5E1,6.1E1,9E0,3E0,2E0,4E0,9E0,4E0,1E1,4E0,2E0,1E0,1.3E1,3E0],"tree_param":{"num_deleted":"0","num_feature":"29","num_nodes":"147","size_leaf_vector":"1"}},{"base_weights":[-4.6675115E0,-6.103208E2,4.5299313E1,3.4637692E2,-8.8031366E2,2.2573723E1,1.3406883E-1,-4.0736682E2,1.2359095E-1,9.3036316E1,-1.0686316E3,-3.0482373E2,1.1980642E2,-2.9824583E-3,-5.2327268E-2,4.7757834E-2,-5.3029492E-2,-1.1466923E3,5.113965E-3,-4.264451E2,6.3023694E2,-2.4262784E2,2.211827E2,-1.4147536E-1,-6.3822876E2,-1.8725916E2,-1.1818815E3,-9.197729E-2,9.8306305E2,1.3253286E-1,-3.7369736E2,5.1623376E2,-4.7408836E1,-8.4011145E-2,2.8653368E-2,-4.693559E2,4.2703113E2,-7.2578125E0,-1.3770472E3,1.41941765E-2,1.0995929E-1,-8.406276E2,-9.664698E1,7.9020654E2,-8.127305E1,3.3619284E2,-3.7635812E2,2.616559E2,-7.2392883E2,-3.242245E2,8.350814E2,1.7299537E-2,-1.8388208E-2,4.284485E-3,-1.5100233E-1,-1.782616E2,-9.698302E2,-3.2904208E2,7.1394293E2,-1.0949388E-1,9.152135E2,9.276741E2,-4.8078824E2,6.8430133E2,-1.8530786E2,-4.4638958E1,-7.638267E2,6.894454E2,-8.2373805E-2,-8.2561285E2,8.0740236E-2,2.495799E2,-9.812222E-2,1.0569899E3,-5.8104746E-2,2.3124821E-2,-7.0339546E-2,-1.3529012E2,-1.097646E3,-1.1352443E2,-9.566743E2,8.7978005E-2,1.9956673E-2,1.2099725E3,4.963492E2,1.2443336E-1,-1.4869873E1,-6.983224E2,5.63929E2,1.0206115E2,1.0418226E3,1.7496858E2,-7.764521E2,3.8908505E2,-6.553614E2,-8.7447626E2,8.352314E-2,1.0621802E-1,1.4434918E2,-1.104686E3,-4.207435E2,4.2044543E-2,5.2476237E-3,3.990603E-2,1.1879612E-1,-2.407987E-2,3.7863525E-3,-1.2844728E-1,-5.79194E-2,-3.453378E2,6.0462054E2,-1.12020895E-1,-6.950061E-3,1.3802363E3,8.253685E2,-5.868689E2,7.423363E2,-2.0745898E-2,1.8515417E-2,-7.957761E2,4.3046888E-2,6.426025E-2,1.6395422E-2,-6.293936E2,3.3453928E2,-2.7669579E-2,1.1481702E3,-8.4958417E2,6.108844E2,-1.5554955E-2,-8.540109E-2,-8.453249E-2,5.190685E2,6.772004E-2,-8.380671E2,-1.2067594E3,-4.3248776E2,-1.8410802E-2,3.1520426E-2,-1.3861731E-2,-1.1736403E-1,1.6867291E-2,-6.628588E-2,1.2800453E-2,-9.0458676E-2,-2.1004187E-2,8.6079665E-2,1.5564513E-2,1.4364965E-1,9.9119335E-2,-4.9935214E-2,9.504272E-4,-7.383382E-2,-6.252033E-2,9.290186E-2,-8.686367E-2,1.4856567E-2,-1.3410375E-2,-8.099867E-2,5.401519E-2,6.2018796E-3,1.2869395E-1,6.132437E-2,-1.3383947E-2,-1.0435526E-1,8.679642E-2,-1.925966E-2,6.6288635E-2,-7.8106564E-3,-3.556397E-2,-9.745223E-2,-1.4298213E-1,-6.096655E-3,3.1640727E-2,-7.5287424E-2],"categories":[],"categories_nodes":[],"categories_segments":[],"categories_sizes":[],"default_left":[0,0,0,0,0,0,0,0,0,0,0,0,0,0,0,0,0,0,0,0,0,0,0,0,0,0,0,0,0,0,0,0,0,0,0,0,0,0,0,0,0,0,0,0,0,0,0,0,0,0,0,0,0,0,0,0,0,0,0,0,0,0,0,0,0,0,0,0,0,0,0,0,0,0,0,0,0,0,0,0,0,0,0,0,0,0,0,0,0,0,0,0,0,0,0,0,0,0,0,0,0,0,0,0,0,0,0,0,0,0,0,0,0,0,0,0,0,0,0,0,0,0,0,0,0,0,0,0,0,0,0,0,0,0,0,0,0,0,0,0,0,0,0,0,0,0,0,0,0,0,0,0,0,0,0,0,0,0,0,0,0,0,0,0,0,0,0,0,0,0,0,0,0,0,0],"id":5,"left_children":[1,3,5,7,9,11,-1,13,-1,15,17,19,21,-1,-1,-1,-1,23,-1,25,27,29,31,-1,33,35,37,-1,39,-1,41,43,45,-1,-1,47,49,51,53,-1,-1,55,57,59,61,63,65,67,69,71,73,-1,-1,-1,-1,75,77,79,81,-1,83,85,87,89,91,93,95,97,-1,99,-1,101,-1,103,-1,-1,-1,105,107,109,111,-1,-1,113,115,-1,117,119,121,123,125,127,129,131,133,135,-1,-1,137,139,141,-1,-1,-1,-1,-1,-1,-1,-1,143,145,-1,-1,147,149,151,153,-1,-1,155,-1,-1,-1,157,159,-1,161,163,165,-1,-1,-1,167,-1,169,171,173,-1,-1,-1,-1,-1,-1,-1,-1,-1,-1,-1,-1,-1,-1,-1,-1,-1,-1,-1,-1,-1,-1,-1,-1,-1,-1,-1,-1,-1,-1,-1,-1,-1,-1,-1,-1,-1,-1],"loss_changes":[9.530094E6,6.504158E6,8.536333E6,4.5263465E6,3.582109E6,9.172802E6,0E0,1.5943106E5,0E0,1.2120458E6,1.457202E6,7.774503E6,8.210441E6,0E0,0E0,0E0,0E0,1.141556E6,0E0,1.0439378E7,5.2792665E6,1.0565327E7,1.3813662E7,0E0,1.5475748E6,8.1717365E6,3.199456E6,0E0,5.300325E5,0E0,5.8694625E6,1.3651374E7,1.1735595E7,0E0,0E0,6.1444865E6,4.869005E6,1.27322E5,2.330436E6,0E0,0E0,1.281967E6,5.8862315E6,1.4434512E7,1.1329437E7,7.9329755E6,6.3924415E6,4.7468035E6,4.403689E6,2.506822E6,3.7566715E6,0E0,0E0,0E0,0E0,1.02284894E6,1.344844E6,3.1377738E6,4.2154375E5,0E0,6.066488E6,2.406227E6,4.9390375E6,5.305916E6,3.969411E6,7.671771E6,4.799897E6,1.2689095E6,0E0,2.133937E6,0E0,1.126495E5,0E0,3.0146E5,0E0,0E0,0E0,6.392508E4,4.18369E5,3.371835E6,7.926465E5,0E0,0E0,8.90804E5,6.8306385E6,0E0,1.5397925E5,2.2126415E6,2.0512375E4,2.0810768E6,2.561236E6,5.878423E6,2.04254E5,3.16648E6,3.489138E6,2.709128E6,0E0,0E0,2.8250597E5,7.03303E5,1.6815801E6,0E0,0E0,0E0,0E0,0E0,0E0,0E0,0E0,4.0865345E6,1.2242885E6,0E0,0E0,1.154332E6,3.1310135E6,4.5867862E5,5.686737E6,0E0,0E0,1.229934E6,0E0,0E0,0E0,1.5971538E5,4.7080325E5,0E0,3.24262E5,4.15659E5,2.0261955E6,0E0,0E0,0E0,1.4259265E6,0E0,3.77549E5,2.979822E6,2.87751E6,0E0,0E0,0E0,0E0,0E0,0E0,0E0,0E0,0E0,0E0,0E0,0E0,0E0,0E0,0E0,0E0,0E0,0E0,0E0,0E0,0E0,0E0,0E0,0E0,0E0,0E0,0E0,0E0,0E0,0E0,0E0,0E0,0E0,0E0,0E0,0E0,0E0,0E0],"parents":[2147483647,0,0,1,1,2,2,3,3,4,4,5,5,7,7,9,9,10,10,11,11,12,12,17,17,19,19,20,20,21,21,22,22,24,24,25,25,26,26,28,28,30,30,31,31,32,32,35,35,36,36,37,37,38,38,41,41,42,42,43,43,44,44,45,45,46,46,47,47,48,48,49,49,50,50,55,55,56,56,57,57,58,58,60,60,61,61,62,62,63,63,64,64,65,65,66,66,67,67,69,69,71,71,73,73,77,77,78,78,79,79,80,80,83,83,84,84,86,86,87,87,88,88,89,89,90,90,91,91,92,92,93,93,94,94,95,95,98,98,99,99,100,100,109,109,110,110,113,113,114,114,115,115,116,116,119,119,123,123,124,124,126,126,127,127,128,128,132,132,134,134,135,135,136,136],"right_children":[2,4,6,8,10,12,-1,14,-1,16,18,20,22,-1,-1,-1,-1,24,-1,26,28,30,32,-1,34,36,38,-1,40,-1,42,44,46,-1,-1,48,50,52,54,-1,-1,56,58,60,62,64,66,68,70,72,74,-1,-1,-1,-1,76,78,80,82,-1,84,86,88,90,92,94,96,98,-1,100,-1,102,-1,104,-1,-1,-1,106,108,110,112,-1,-1,114,116,-1,118,120,122,124,126,128,130,132,134,136,-1,-1,138,140,142,-1,-1,-1,-1,-1,-1,-1,-1,144,146,-1,-1,148,150,152,154,-1,-1,156,-1,-1,-1,158,160,-1,162,164,166,-1,-1,-1,168,-1,170,172,174,-1,-1,-1,-1,-1,-1,-1,-1,-1,-1,-1,-1,-1,-1,-1,-1,-1,-1,-1,-1,-1,-1,-1,-1,-1,-1,-1,-1,-1,-1,-1,-1,-1,-1,-1,-1,-1,-1],"split_conditions":[1E-1,2.046371E-1,9.8714083E-1,6.327212E-1,2.6377296E-1,2.6764113E-1,1.3406883E-1,2.8116027E-1,1.2359095E-1,6.4330846E-1,9.6666664E-1,8.666667E-1,2.3873122E-1,-2.9824583E-3,-5.2327268E-2,4.7757834E-2,-5.3029492E-2,4.4063267E-1,5.113965E-3,7.846411E-1,2.5847214E-3,1.5E-1,4.739803E-1,-1.4147536E-1,6.7309624E-1,5.7273334E-1,4.9829215E-2,-9.197729E-2,1.20200336E-1,1.3253286E-1,4.008187E-1,7.666331E-1,5.2587646E-1,-8.4011145E-2,2.8653368E-2,2.968392E-1,2.2228605E-1,6.1315334E-1,1.1666667E-1,1.41941765E-2,1.0995929E-1,2E-1,8.1233674E-1,7.150813E-2,1.8445088E-1,5.0054735E-1,5.358989E-1,1E0,9.2183256E-1,1.2550259E-1,1E0,1.7299537E-2,-1.8388208E-2,4.284485E-3,-1.5100233E-1,6.164315E-1,6.1769616E-2,1E0,9.5146465E-1,-1.0949388E-1,6.346625E-1,6.2103504E-1,9.2439514E-1,6.837452E-1,8.1666666E-1,1E0,9.1681737E-1,1.9405241E-1,-8.2373805E-2,4.9916527E-1,8.0740236E-2,3.159104E-3,-9.812222E-2,3E-1,-5.8104746E-2,2.3124821E-2,-7.0339546E-2,1.6369903E-1,1E0,1E0,9.4629526E-1,8.7978005E-2,1.9956673E-2,1E0,6.881265E-1,1.2443336E-1,3.3744973E-1,7.928269E-1,9.551411E-1,7.882889E-2,2.5847214E-3,3.252395E-2,3.159104E-3,5.392321E-1,3.5E-1,4.8333332E-1,8.352314E-2,1.0621802E-1,4.5433658E-1,3.876142E-2,4.3333334E-1,4.2044543E-2,5.2476237E-3,3.990603E-2,1.1879612E-1,-2.407987E-2,3.7863525E-3,-1.2844728E-1,-5.79194E-2,7.530155E-1,2.0160827E-1,-1.12020895E-1,-6.950061E-3,2E-1,1E0,2.7712855E-1,3.854169E-2,-2.0745898E-2,1.8515417E-2,3.2328713E-1,4.3046888E-2,6.426025E-2,1.6395422E-2,5.4566342E-2,6.2105685E-1,-2.7669579E-2,4.519829E-1,4.5807007E-1,1E0,-1.5554955E-2,-8.540109E-2,-8.453249E-2,1E0,6.772004E-2,1.90212E-1,1E0,5.9091824E-1,-1.8410802E-2,3.1520426E-2,-1.3861731E-2,-1.1736403E-1,1.6867291E-2,-6.628588E-2,1.2800453E-2,-9.0458676E-2,-2.1004187E-2,8.6079665E-2,1.5564513E-2,1.4364965E-1,9.9119335E-2,-4.9935214E-2,9.504272E-4,-7.383382E-2,-6.252033E-2,9.290186E-2,-8.686367E-2,1.4856567E-2,-1.3410375E-2,-8.099867E-2,5.401519E-2,6.2018796E-3,1.2869395E-1,6.132437E-2,-1.3383947E-2,-1.0435526E-1,8.679642E-2,-1.925966E-2,6.6288635E-2,-7.8106564E-3,-3.556397E-2,-9.745223E-2,-1.4298213E-1,-6.096655E-3,3.1640727E-2,-7.5287424E-2],"split_indices":[7,2,4,5,5,2,0,0,0,0,10,10,5,0,0,0,0,6,0,5,0,7,4,0,4,6,4,0,5,0,8,2,5,0,0,9,0,0,7,0,0,7,4,6,6,8,0,17,9,0,18,0,0,0,0,2,5,28,0,0,6,5,2,4,7,20,4,2,0,5,0,0,0,10,0,0,0,0,21,25,0,0,0,17,6,0,0,6,2,8,0,6,0,5,7,10,0,0,0,6,7,0,0,0,0,0,0,0,0,0,0,0,0,7,27,5,9,0,0,4,0,0,0,0,4,0,8,0,24,0,0,0,23,0,8,20,4,0,0,0,0,0,0,0,0,0,0,0,0,0,0,0,0,0,0,0,0,0,0,0,0,0,0,0,0,0,0,0,0,0,0,0,0,0,0],"split_type":[0,0,0,0,0,0,0,0,0,0,0,0,0,0,0,0,0,0,0,0,0,0,0,0,0,0,0,0,0,0,0,0,0,0,0,0,0,0,0,0,0,0,0,0,0,0,0,0,0,0,0,0,0,0,0,0,0,0,0,0,0,0,0,0,0,0,0,0,0,0,0,0,0,0,0,0,0,0,0,0,0,0,0,0,0,0,0,0,0,0,0,0,0,0,0,0,0,0,0,0,0,0,0,0,0,0,0,0,0,0,0,0,0,0,0,0,0,0,0,0,0,0,0,0,0,0,0,0,0,0,0,0,0,0,0,0,0,0,0,0,0,0,0,0,0,0,0,0,0,0,0,0,0,0,0,0,0,0,0,0,0,0,0,0,0,0,0,0,0,0,0,0,0,0,0],"sum_hessian":[3.13E2,2.3E1,2.9E2,5E0,1.8E1,2.86E2,4E0,3E0,2E0,3E0,1.5E1,6.5E1,2.21E2,1E0,2E0,2E0,1E0,1.4E1,1E0,5.8E1,7E0,4.8E1,1.73E2,8E0,6E0,4.5E1,1.3E1,1E0,6E0,3E0,4.5E1,8.2E1,9.1E1,5E0,1E0,3.1E1,1.4E1,2E0,1.1E1,1E0,5E0,1.6E1,2.9E1,5.6E1,2.6E1,4.2E1,4.9E1,8E0,2.3E1,5E0,9E0,1E0,1E0,1E0,1E1,3E0,1.3E1,2.3E1,6E0,3E0,5.3E1,7E0,1.9E1,2.5E1,1.7E1,2.7E1,2.2E1,6E0,2E0,2.2E1,1E0,3E0,2E0,8E0,1E0,2E0,1E0,2E0,1.1E1,1.8E1,5E0,4E0,2E0,3E1,2.3E1,5E0,2E0,1.6E1,3E0,1E1,1.5E1,1.1E1,6E0,1.6E1,1.1E1,2.1E1,1E0,3E0,3E0,1.2E1,1E1,1E0,2E0,2E0,6E0,1E0,1E0,7E0,4E0,1.4E1,4E0,4E0,1E0,1.9E1,1.1E1,4E0,1.9E1,1E0,1E0,1.5E1,1E0,2E0,1E0,2E0,8E0,1E0,1.4E1,3E0,8E0,1E0,5E0,1E0,1.5E1,1E0,1E1,1.1E1,1E1,1E0,2E0,1E0,1.1E1,3E0,7E0,8E0,6E0,1E0,3E0,1E0,1.8E1,1E1,1E0,1E0,3E0,2E0,1.7E1,1.4E1,1E0,1E0,1E0,4E0,4E0,1E1,4E0,1E0,2E0,6E0,2E0,1.2E1,3E0,3E0,7E0,9E0,2E0,3E0,7E0],"tree_param":{"num_deleted":"0","num_feature":"29","num_nodes":"175","size_leaf_vector":"1"}},{"base_weights":[2.2645817E1,-6.902828E1,4.395306E2,-7.463164E2,4.940418E0,6.912092E2,-3.7257302E0,-9.196539E2,4.3695294E2,7.345416E2,-5.423869E1,2.200021E2,9.6846564E2,-9.3585565E2,3.2548047E2,-2.6640628E2,-1.1887993E3,-1.3861035E-2,6.7501076E-2,-5.8348265E-2,1.0370453E3,-7.1643555E2,-2.79237E0,-5.977958E2,6.886806E2,1.0979819E3,5.155738E2,-1.2103035E-1,-2.5797322E-2,7.6285205E2,-4.083149E2,-6.967945E-2,3.3818054E2,-1.5742703E-1,-6.0654443E2,1.2951587E-1,4.3401526E2,9.013186E-2,-8.843737E2,-7.657588E2,3.982399E1,-7.836054E-2,1.6562633E-2,1.0350785E3,-4.6460733E-2,3.701181E2,1.2275157E3,7.7923094E-3,5.755284E2,1.1786412E-1,2.8176708E1,2.3958813E2,-7.1539374E2,-1.7181676E-2,5.654519E-2,2.5947949E-2,-7.673307E2,7.908162E-2,-1.8639111E2,-1.0309799E3,-3.8496528E-2,4.9061045E-2,-9.404567E2,2.2397868E2,-1.5233527E2,1.1175564E-1,2.288667E-2,6.5347746E-2,-2.3997998E-2,3.118159E-2,1.2739684E3,6.371525E-2,1.3370373E-2,5.4411124E-2,-4.9715005E-2,3.082451E-2,5.1137083E-3,1.4568726E-3,-9.015265E-2,-1.4687346E2,-9.861388E-2,-3.7918735E-2,9.96007E-3,-1.0853309E3,-2.4373474E-2,2.865194E-2,-1.1086229E3,9.187356E2,1.1998072E2,6.839989E2,-2.8991077E2,1.3261484E-1,3.239038E-2,-2.074486E-2,-1.2861572E-3,-1.1344987E-1,-3.2141004E-2,-1.2473682E-1,-4.1534286E-2,1.2718117E-1,2.9484476E2,1.9919688E2,-1.2506902E3,-1.00810745E2,1.00800385E3,2.1023703E2,-5.0540115E2,4.3782626E2,-2.1003136E-2,5.5993534E1,6.329598E2,-1.4350766E-1,-2.5657214E-2,7.546802E1,-4.0296286E-2,1.0696989E3,2.2637438E-2,-1.1277196E2,1.103086E3,-6.0849146E2,5.066449E2,1.3039233E-2,4.8208665E-2,5.4879636E-2,-1.1612161E-2,-7.108257E-2,8.118227E-2,1.6394604E-2,-8.6733396E-4,2.384757E-2,1.1437922E-1,-3.3443242E-2,6.19096E-2,1.4855823E-2,1.23741426E-1,-6.807652E-2,8.4708445E-2,-6.788433E-2,1.2690999E-1],"categories":[],"categories_nodes":[],"categories_segments":[],"categories_sizes":[],"default_left":[0,0,0,0,0,0,0,0,0,0,0,0,0,0,0,0,0,0,0,0,0,0,0,0,0,0,0,0,0,0,0,0,0,0,0,0,0,0,0,0,0,0,0,0,0,0,0,0,0,0,0,0,0,0,0,0,0,0,0,0,0,0,0,0,0,0,0,0,0,0,0,0,0,0,0,0,0,0,0,0,0,0,0,0,0,0,0,0,0,0,0,0,0,0,0,0,0,0,0,0,0,0,0,0,0,0,0,0,0,0,0,0,0,0,0,0,0,0,0,0,0,0,0,0,0,0,0,0,0,0,0,0,0,0,0,0,0,0,0],"id":6,"left_children":[1,3,5,7,9,11,13,15,17,19,21,23,25,27,29,31,33,-1,-1,-1,35,37,39,41,43,45,47,-1,-1,49,51,-1,53,-1,55,-1,57,-1,59,61,63,-1,-1,65,-1,67,69,-1,71,-1,73,75,77,-1,-1,-1,79,-1,81,83,-1,-1,85,87,89,-1,-1,-1,-1,-1,91,-1,-1,-1,-1,-1,-1,-1,-1,93,-1,-1,-1,95,-1,-1,97,99,101,103,105,-1,-1,-1,-1,-1,-1,-1,-1,-1,107,109,111,113,115,117,119,121,-1,123,125,-1,-1,127,-1,129,-1,131,133,135,137,-1,-1,-1,-1,-1,-1,-1,-1,-1,-1,-1,-1,-1,-1,-1,-1,-1,-1],"loss_changes":[1.229817E7,1.3229592E7,6.47295E6,5.734574E6,1.0359178E7,4.620806E6,7.0555875E6,3.727122E6,6.41633E5,7.78183E6,7.561004E6,6.160955E6,7.83018E5,8.040345E5,5.767485E6,2.3172985E6,2.636214E6,0E0,0E0,0E0,1.772633E6,5.1440265E6,6.7610695E6,9.80893E5,4.47587E6,1.148486E6,1.3882725E5,0E0,0E0,3.3269615E6,1.5641011E6,0E0,5.6078525E5,0E0,1.313064E6,0E0,1.4755708E6,0E0,7.01354E5,2.8757345E6,7.005364E6,0E0,0E0,2.76186E5,0E0,8.483295E5,1.98268E5,0E0,7.817275E4,0E0,1.6256761E6,2.3052688E4,6.92484E5,0E0,0E0,0E0,8.0549E5,0E0,2.0318178E5,2.0613E5,0E0,0E0,2.381001E6,7.187353E6,1.1359033E7,0E0,0E0,0E0,0E0,0E0,2.14924E5,0E0,0E0,0E0,0E0,0E0,0E0,0E0,0E0,2.1685262E4,0E0,0E0,0E0,1.0964E4,0E0,0E0,3.47619E5,2.488666E6,9.912691E6,3.6615685E6,9.159525E6,0E0,0E0,0E0,0E0,0E0,0E0,0E0,0E0,0E0,5.2508494E5,5.244444E6,5.48309E5,2.9672584E5,2.40074E5,7.622751E6,6.463883E6,5.175375E3,0E0,5.576952E6,5.624488E6,0E0,0E0,3.1200602E4,0E0,2.81527E5,0E0,3.45157E6,7.13713E5,6.257464E6,6.2848085E6,0E0,0E0,0E0,0E0,0E0,0E0,0E0,0E0,0E0,0E0,0E0,0E0,0E0,0E0,0E0,0E0,0E0,0E0],"parents":[2147483647,0,0,1,1,2,2,3,3,4,4,5,5,6,6,7,7,8,8,9,9,10,10,11,11,12,12,13,13,14,14,15,15,16,16,20,20,21,21,22,22,23,23,24,24,25,25,26,26,29,29,30,30,32,32,34,34,36,36,38,38,39,39,40,40,43,43,45,45,46,46,48,48,50,50,51,51,52,52,56,56,58,58,59,59,62,62,63,63,64,64,70,70,79,79,83,83,86,86,87,87,88,88,89,89,90,90,100,100,101,101,102,102,103,103,104,104,105,105,106,106,107,107,109,109,110,110,113,113,115,115,117,117,118,118,119,119,120,120],"right_children":[2,4,6,8,10,12,14,16,18,20,22,24,26,28,30,32,34,-1,-1,-1,36,38,40,42,44,46,48,-1,-1,50,52,-1,54,-1,56,-1,58,-1,60,62,64,-1,-1,66,-1,68,70,-1,72,-1,74,76,78,-1,-1,-1,80,-1,82,84,-1,-1,86,88,90,-1,-1,-1,-1,-1,92,-1,-1,-1,-1,-1,-1,-1,-1,94,-1,-1,-1,96,-1,-1,98,100,102,104,106,-1,-1,-1,-1,-1,-1,-1,-1,-1,108,110,112,114,116,118,120,122,-1,124,126,-1,-1,128,-1,130,-1,132,134,136,138,-1,-1,-1,-1,-1,-1,-1,-1,-1,-1,-1,-1,-1,-1,-1,-1,-1,-1],"split_conditions":[8.2198113E-1,8.398307E-2,5.0417364E-1,8E0,1.3677879E-1,5.388728E-1,6.2103504E-1,3.6517754E-1,1.5191987E-1,2.5041735E-1,4.7819972E-2,2.2704507E-1,6.080402E-1,5.0753766E-1,3E0,5.060245E-2,7.0409185E-1,-1.3861035E-2,6.7501076E-2,-5.8348265E-2,5.780591E-1,5E-2,1E-1,9.238943E-1,6.8333334E-1,1.9902818E-1,6.231156E-1,-1.2103035E-1,-2.5797322E-2,5.7062507E-1,3.2674766E-1,-6.967945E-2,9.94575E-2,-1.5742703E-1,7.035176E-2,1.2951587E-1,3.1666666E-1,9.013186E-2,1E0,4.006678E-2,2E0,-7.836054E-2,1.6562633E-2,7.9899496E-1,-4.6460733E-2,5.5025846E-1,2.960942E-1,7.7923094E-3,9.5146465E-1,1.1786412E-1,9.119952E-1,3.087306E-1,3.6180905E-1,-1.7181676E-2,5.654519E-2,2.5947949E-2,7.2488546E-1,7.908162E-2,4.078116E-2,1E0,-3.8496528E-2,4.9061045E-2,3.517588E-2,2.653152E-1,1.7118746E-1,1.1175564E-1,2.288667E-2,6.5347746E-2,-2.3997998E-2,3.118159E-2,9.857344E-1,6.371525E-2,1.3370373E-2,5.4411124E-2,-4.9715005E-2,3.082451E-2,5.1137083E-3,1.4568726E-3,-9.015265E-2,3.3744973E-1,-9.861388E-2,-3.7918735E-2,9.96007E-3,3.4759894E-2,-2.4373474E-2,2.865194E-2,1E0,4.400865E-1,9.081803E-1,4.2404008E-1,2.6450315E-1,1.3261484E-1,3.239038E-2,-2.074486E-2,-1.2861572E-3,-1.1344987E-1,-3.2141004E-2,-1.2473682E-1,-4.1534286E-2,1.2718117E-1,6.720916E-1,1E0,3.5828945E-1,6.766226E-1,6.381909E-1,6.5829146E-1,9.30274E-1,1.3009764E-1,-2.1003136E-2,3E-1,6.1769616E-2,-1.4350766E-1,-2.5657214E-2,1.7174038E-1,-4.0296286E-2,1.1688685E-1,2.2637438E-2,2.4813326E-1,3.2791725E-1,9.7364193E-1,4.0703517E-1,1.3039233E-2,4.8208665E-2,5.4879636E-2,-1.1612161E-2,-7.108257E-2,8.118227E-2,1.6394604E-2,-8.6733396E-4,2.384757E-2,1.1437922E-1,-3.3443242E-2,6.19096E-2,1.4855823E-2,1.23741426E-1,-6.807652E-2,8.4708445E-2,-6.788433E-2,1.2690999E-1],"split_indices":[4,6,5,13,6,6,5,8,5,5,4,5,1,1,11,8,8,0,0,0,4,7,7,0,7,9,1,0,0,8,9,0,4,0,1,0,7,0,27,5,11,0,0,1,0,0,0,0,0,0,4,0,1,0,0,0,8,0,0,21,0,0,1,6,4,0,0,0,0,0,4,0,0,0,0,0,0,0,0,0,0,0,0,4,0,0,22,9,5,5,0,0,0,0,0,0,0,0,0,0,4,22,9,0,1,1,6,0,0,7,5,0,0,0,0,0,0,0,9,9,1,0,0,0,0,0,0,0,0,0,0,0,0,0,0,0,0,0,0],"split_type":[0,0,0,0,0,0,0,0,0,0,0,0,0,0,0,0,0,0,0,0,0,0,0,0,0,0,0,0,0,0,0,0,0,0,0,0,0,0,0,0,0,0,0,0,0,0,0,0,0,0,0,0,0,0,0,0,0,0,0,0,0,0,0,0,0,0,0,0,0,0,0,0,0,0,0,0,0,0,0,0,0,0,0,0,0,0,0,0,0,0,0,0,0,0,0,0,0,0,0,0,0,0,0,0,0,0,0,0,0,0,0,0,0,0,0,0,0,0,0,0,0,0,0,0,0,0,0,0,0,0,0,0,0,0,0,0,0,0,0],"sum_hessian":[3.2E2,2.63E2,5.7E1,2.5E1,2.38E2,3.6E1,2.1E1,2.2E1,3E0,1.7E1,2.21E2,1.4E1,2.2E1,5E0,1.6E1,7E0,1.5E1,1E0,2E0,3E0,1.4E1,1.5E1,2.06E2,5E0,9E0,1.6E1,6E0,3E0,2E0,1E1,6E0,4E0,3E0,8E0,7E0,9E0,5E0,1E0,1.4E1,1E1,1.96E2,4E0,1E0,7E0,2E0,3E0,1.3E1,1E0,5E0,6E0,4E0,2E0,4E0,1E0,2E0,1E0,6E0,3E0,2E0,1E1,4E0,1E0,9E0,1E2,9.6E1,6E0,1E0,2E0,1E0,1E0,1.2E1,4E0,1E0,2E0,2E0,1E0,1E0,1E0,3E0,2E0,4E0,1E0,1E0,9E0,1E0,1E0,8E0,1.2E1,8.8E1,1.3E1,8.3E1,1.1E1,1E0,1E0,1E0,8E0,1E0,6E0,2E0,7E0,5E0,8.4E1,4E0,4E0,9E0,2.5E1,5.8E1,4E0,1E0,6.4E1,2E1,3E0,1E0,3E0,1E0,8E0,1E0,1.9E1,6E0,5.3E1,5E0,1E0,3E0,1.6E1,4.8E1,2E0,1.8E1,1E0,2E0,1E0,7E0,1.5E1,4E0,1E0,5E0,5.1E1,2E0,2E0,3E0],"tree_param":{"num_deleted":"0","num_feature":"29","num_nodes":"139","size_leaf_vector":"1"}},{"base_weights":[-3.2712143E1,-1.2750853E2,4.069187E2,-2.2698303E2,2.635402E2,-1.4176944E2,6.436554E2,-1.7812123E2,-1.4445862E-1,6.6424835E2,-3.0542508E2,3.353053E2,-1.1518031E3,4.6500897E2,1.3001149E3,2.3641037E2,-3.2518472E2,7.7632684E2,-6.779527E2,-8.6976245E2,5.151897E2,8.2857367E2,-3.782701E2,-3.0757384E-2,-1.2591341E-1,5.991224E2,-4.058505E2,1.3933063E-1,3.2388758E-2,9.79163E2,-7.4370476E1,-7.725154E2,-1.8355463E2,8.5930096E2,-2.568741E2,-2.9887815E-3,-9.870412E-2,3.712749E-2,-9.9378644E2,1.0617861E-1,-2.6172281E1,2.1024469E2,1.15752205E-1,-7.6642206E2,7.8124486E-2,-2.741067E2,6.7395807E2,2.2567736E-2,-6.201518E-2,9.134265E1,1.1770183E3,-7.414887E2,3.288753E2,-8.4901495E2,9.524846E-2,1.262701E2,-5.2947424E2,-2.1303662E2,9.499822E2,8.797473E-3,-4.7328588E-2,-3.2972412E1,-1.1654824E3,-5.814944E-2,3.9686237E2,3.6953945E-2,-1.3381982E-2,-8.473108E-3,-9.1566205E-2,-4.890792E-2,7.7919187E-3,7.543528E2,2.3100464E1,-2.7672265E-2,3.0627197E2,1.3098824E3,-2.0867566E-2,-9.656597E2,4.7708176E-2,-1.09809846E-1,5.0070337E2,-1.0342843E3,-1.9887201E2,-6.793479E2,3.7539508E2,-1.7779448E2,-1.0110376E3,3.9767576E-3,-3.593225E-2,3.503675E2,1.1123483E3,1.0060302E-3,-5.951892E-3,-1.2234467E3,-2.9292004E-2,4.9791993E-3,4.9595516E-2,9.204115E2,3.7532025E2,-2.5311412E-2,1.9954337E-2,4.204437E-2,3.8964231E-3,1.406548E-1,5.510361E2,-2.6509194E-2,-1.0689364E-1,7.756679E2,-2.3859665E2,-1.2133041E3,-6.0862006E2,3.6321466E2,-7.2118427E2,1.1190538E-1,-1.0421061E3,5.5399194E2,-1.480573E2,-3.8547485E2,5.1939105E2,-1.1128964E3,6.1492674E-2,9.4410223E2,-3.309591E2,1.4135864E-3,1.1694049E3,-1.2882397E-1,-3.2015428E-2,1.1460271E-1,3.53381E2,8.999471E-2,-3.6984375E1,1.48550775E-2,6.780033E-2,1.0136318E3,-6.727073E-2,-5.737541E-2,3.9953134E2,-1.2924011E3,-3.8701904E2,9.0325706E-2,-8.7696826E2,4.3257993E-2,4.287671E-3,-1.8385364E-2,-8.095535E-2,-1.2617325E3,7.967052E-2,7.773668E2,2.261879E2,-5.485427E2,6.02428E2,9.272568E1,-6.9014557E2,1.1049001E-1,-5.2894432E1,3.3623487E-2,-1.1979137E3,2.463369E-2,1.09457836E-1,1.9247657E-2,-5.695965E2,1.3883129E3,8.3355635E-2,5.5352313E2,-3.2366477E-2,-3.9574668E-2,2.4133344E2,1.7294604E-2,1.0613274E-1,4.9970128E-2,9.95957E-3,-1.7178833E-2,-1.355656E-1,4.708215E-3,-6.276107E-2,-1.2419555E-2,-1.0743039E-1,-1.3382499E-1,-2.1002088E-2,5.216265E-2,1.1277414E-1,-3.4097247E-2,7.051985E-2,1.998988E-2,-9.5607996E-2,9.51082E-2,-3.960941E-2,8.853284E-2,-7.1533136E-2,-8.161616E-2,6.0004797E-2,-2.6265062E-2,3.9306518E-2,-1.4402434E-1,-7.8732654E-2,-6.825865E-2,-1.7180823E-2,3.3014026E-2,1.4692053E-1,6.1343443E-2,1.5693896E-2,1.4567993E-3,3.1206591E-2],"categories":[],"categories_nodes":[],"categories_segments":[],"categories_sizes":[],"default_left":[0,0,0,0,0,0,0,0,0,0,0,0,0,0,0,0,0,0,0,0,0,0,0,0,0,0,0,0,0,0,0,0,0,0,0,0,0,0,0,0,0,0,0,0,0,0,0,0,0,0,0,0,0,0,0,0,0,0,0,0,0,0,0,0,0,0,0,0,0,0,0,0,0,0,0,0,0,0,0,0,0,0,0,0,0,0,0,0,0,0,0,0,0,0,0,0,0,0,0,0,0,0,0,0,0,0,0,0,0,0,0,0,0,0,0,0,0,0,0,0,0,0,0,0,0,0,0,0,0,0,0,0,0,0,0,0,0,0,0,0,0,0,0,0,0,0,0,0,0,0,0,0,0,0,0,0,0,0,0,0,0,0,0,0,0,0,0,0,0,0,0,0,0,0,0,0,0,0,0,0,0,0,0,0,0,0,0,0,0,0,0,0,0,0,0,0,0,0,0,0,0,0,0],"id":7,"left_children":[1,3,5,7,9,11,13,15,-1,17,19,21,23,25,27,29,31,33,35,37,39,41,43,-1,-1,45,47,-1,-1,49,51,53,55,57,59,-1,-1,-1,61,-1,63,65,-1,67,-1,69,71,-1,-1,73,75,77,79,81,-1,83,85,87,89,-1,-1,91,93,-1,95,-1,-1,-1,-1,-1,-1,97,99,-1,101,103,-1,105,-1,-1,107,109,111,113,115,117,119,-1,-1,121,123,-1,-1,125,-1,-1,-1,127,129,-1,-1,-1,-1,-1,131,-1,-1,133,135,137,139,141,143,-1,145,147,149,151,153,155,-1,157,159,-1,161,-1,-1,-1,163,-1,165,-1,-1,167,-1,-1,169,171,173,-1,175,-1,-1,-1,-1,177,-1,179,181,183,185,187,189,-1,191,-1,193,-1,-1,-1,195,197,-1,199,-1,-1,201,-1,-1,-1,-1,-1,-1,-1,-1,-1,-1,-1,-1,-1,-1,-1,-1,-1,-1,-1,-1,-1,-1,-1,-1,-1,-1,-1,-1,-1,-1,-1,-1,-1,-1,-1,-1],"loss_changes":[1.3388017E7,1.0329255E7,7.495244E6,1.2295984E7,1.2514285E7,9.059713E6,4.0864E6,1.2513219E7,0E0,5.340133E6,1.1099475E7,4.889219E6,1.56396E5,4.0973535E6,2.76533E5,1.2537818E7,9.424878E6,2.7926E6,5.714279E5,2.523826E6,2.986855E6,1.383824E6,3.2991715E6,0E0,0E0,2.079849E6,8.166404E5,0E0,0E0,2.703047E6,1.0735348E7,5.559296E6,1.2499094E7,2.925126E6,2.6552525E5,0E0,0E0,0E0,2.106153E6,0E0,1.6402962E6,2.6868244E5,0E0,4.3109275E5,0E0,2.6513634E5,1.395363E6,0E0,0E0,4.0118453E5,2.666758E6,4.5582205E6,6.679676E6,4.010114E6,0E0,1.2698397E7,9.134828E6,1.2523445E5,2.141554E6,0E0,0E0,4.0258833E3,1.97981E5,0E0,1.12874125E5,0E0,0E0,0E0,0E0,0E0,0E0,1.165151E6,2.4545169E5,0E0,7.517472E4,1.05194E5,0E0,6.57215E5,0E0,0E0,4.860541E6,1.319024E6,2.9042072E6,1.0951948E7,4.5693965E6,4.97834E6,4.493576E6,0E0,0E0,3.14415E6,1.236676E6,0E0,0E0,1.72835E5,0E0,0E0,0E0,1.64191E6,1.9800389E6,0E0,0E0,0E0,0E0,0E0,5.2589438E4,0E0,0E0,6.541114E6,1.726346E6,6.76234E5,4.8492235E6,9.2554125E4,8.857825E4,0E0,6.255296E6,2.460204E6,4.2377175E6,3.8520298E6,2.73907E6,3.113214E6,0E0,1.50353E5,6.0927925E5,0E0,2.3964E5,0E0,0E0,0E0,9.921882E5,0E0,6.946065E5,0E0,0E0,4.17904E5,0E0,0E0,4.03655E4,9.01262E5,3.4287266E5,0E0,1.2035165E6,0E0,0E0,0E0,0E0,6.84632E5,0E0,1.293443E6,4.5872665E6,2.936279E6,2.1174115E6,7.678454E6,3.091098E6,0E0,5.7095275E5,0E0,9.55502E5,0E0,0E0,0E0,1.7564375E4,3.7094E5,0E0,2.25275E4,0E0,0E0,5.961253E4,0E0,0E0,0E0,0E0,0E0,0E0,0E0,0E0,0E0,0E0,0E0,0E0,0E0,0E0,0E0,0E0,0E0,0E0,0E0,0E0,0E0,0E0,0E0,0E0,0E0,0E0,0E0,0E0,0E0,0E0,0E0,0E0,0E0,0E0,0E0,0E0],"parents":[2147483647,0,0,1,1,2,2,3,3,4,4,5,5,6,6,7,7,9,9,10,10,11,11,12,12,13,13,14,14,15,15,16,16,17,17,18,18,19,19,20,20,21,21,22,22,25,25,26,26,29,29,30,30,31,31,32,32,33,33,34,34,38,38,40,40,41,41,43,43,45,45,46,46,49,49,50,50,51,51,52,52,53,53,55,55,56,56,57,57,58,58,61,61,62,62,64,64,71,71,72,72,74,74,75,75,77,77,80,80,81,81,82,82,83,83,84,84,85,85,86,86,89,89,90,90,93,93,97,97,98,98,104,104,107,107,108,108,109,109,110,110,111,111,112,112,114,114,115,115,116,116,117,117,118,118,119,119,121,121,122,122,124,124,128,128,130,130,133,133,136,136,137,137,138,138,140,140,145,145,147,147,148,148,149,149,150,150,151,151,152,152,154,154,156,156,160,160,161,161,163,163,166,166],"right_children":[2,4,6,8,10,12,14,16,-1,18,20,22,24,26,28,30,32,34,36,38,40,42,44,-1,-1,46,48,-1,-1,50,52,54,56,58,60,-1,-1,-1,62,-1,64,66,-1,68,-1,70,72,-1,-1,74,76,78,80,82,-1,84,86,88,90,-1,-1,92,94,-1,96,-1,-1,-1,-1,-1,-1,98,100,-1,102,104,-1,106,-1,-1,108,110,112,114,116,118,120,-1,-1,122,124,-1,-1,126,-1,-1,-1,128,130,-1,-1,-1,-1,-1,132,-1,-1,134,136,138,140,142,144,-1,146,148,150,152,154,156,-1,158,160,-1,162,-1,-1,-1,164,-1,166,-1,-1,168,-1,-1,170,172,174,-1,176,-1,-1,-1,-1,178,-1,180,182,184,186,188,190,-1,192,-1,194,-1,-1,-1,196,198,-1,200,-1,-1,202,-1,-1,-1,-1,-1,-1,-1,-1,-1,-1,-1,-1,-1,-1,-1,-1,-1,-1,-1,-1,-1,-1,-1,-1,-1,-1,-1,-1,-1,-1,-1,-1,-1,-1,-1,-1],"split_conditions":[8.2198113E-1,1E0,2E-1,8.1093025E-1,6.148282E-1,9.4735783E-1,9.7066504E-1,2.996905E-1,-1.4445862E-1,9.4226384E-1,6.939924E-1,1E0,2.0766129E-1,1E0,8.779437E-1,2.2286043E-1,2.3185484E-1,9.166667E-1,2.8116027E-1,1.8445088E-1,4.8333332E-1,4.5807007E-1,7.65121E-1,-3.0757384E-2,-1.2591341E-1,7.13049E-2,3.3215725E-1,1.3933063E-1,3.2388758E-2,3.4462952E-3,4.1815048E-1,9.9532187E-1,4.997128E-1,5E-2,3.2452613E-2,-2.9887815E-3,-9.870412E-2,3.712749E-2,1.5824239E-1,1.0617861E-1,4.964026E-1,2.960942E-1,1.15752205E-1,5.169443E-3,7.8124486E-2,2.9149914E-1,9.5146465E-1,2.2567736E-2,-6.201518E-2,2.5847214E-3,8.58871E-1,7.410446E-1,8.3333336E-2,8.0012155E-1,9.524846E-2,4.8028457E-1,4.745831E-1,1.2550259E-1,3.482863E-1,8.797473E-3,-4.7328588E-2,7.5818494E-2,8.584147E-1,-5.814944E-2,4.997128E-1,3.6953945E-2,-1.3381982E-2,-8.473108E-3,-9.1566205E-2,-4.890792E-2,7.7919187E-3,6.093541E-1,9.902355E-1,-2.7672265E-2,3.159104E-3,7.97379E-1,-2.0867566E-2,1.16536066E-1,4.7708176E-2,-1.09809846E-1,1E0,7.3333335E-1,8.4206825E-1,2.7217743E-1,8.83476E-1,6.8333334E-1,8.741368E-1,3.9767576E-3,-3.593225E-2,5.897343E-1,9.043772E-3,1.0060302E-3,-5.951892E-3,8.833333E-1,-2.9292004E-2,4.9791993E-3,4.9595516E-2,1E0,3.5E-1,-2.5311412E-2,1.9954337E-2,4.204437E-2,3.8964231E-3,1.406548E-1,1.4158529E-1,-2.6509194E-2,-1.0689364E-1,7.8259623E-1,7.983871E-1,7.8891444E-1,4.889113E-2,7.3978055E-1,7.5228107E-1,1.1190538E-1,9.5816535E-1,5.37923E-1,9.5855945E-1,5.236895E-1,1.1533052E-1,5.048266E-3,6.1492674E-2,1.4406268E-1,4.4658244E-1,1.4135864E-3,5.5090725E-1,-1.2882397E-1,-3.2015428E-2,1.1460271E-1,4.925439E-1,8.999471E-2,4.839173E-1,1.48550775E-2,6.780033E-2,4.9829215E-2,-6.727073E-2,-5.737541E-2,5.761057E-1,4.144861E-1,8.055715E-1,9.0325706E-2,7.5E-1,4.3257993E-2,4.287671E-3,-1.8385364E-2,-8.095535E-2,9.5837957E-1,7.967052E-2,2.6450315E-1,7.4850273E-1,2.8803742E-1,8.3654886E-1,6.319386E-1,7.8333336E-1,1.1049001E-1,9.574957E-1,3.3623487E-2,6.7502713E-1,2.463369E-2,1.09457836E-1,1.9247657E-2,6.4675474E-1,4.6237793E-2,8.3355635E-2,7.4956924E-1,-3.2366477E-2,-3.9574668E-2,5.356117E-1,1.7294604E-2,1.0613274E-1,4.9970128E-2,9.95957E-3,-1.7178833E-2,-1.355656E-1,4.708215E-3,-6.276107E-2,-1.2419555E-2,-1.0743039E-1,-1.3382499E-1,-2.1002088E-2,5.216265E-2,1.1277414E-1,-3.4097247E-2,7.051985E-2,1.998988E-2,-9.5607996E-2,9.51082E-2,-3.960941E-2,8.853284E-2,-7.1533136E-2,-8.161616E-2,6.0004797E-2,-2.6265062E-2,3.9306518E-2,-1.4402434E-1,-7.8732654E-2,-6.825865E-2,-1.7180823E-2,3.3014026E-2,1.4692053E-1,6.1343443E-2,1.5693896E-2,1.4567993E-3,3.1206591E-2],"split_indices":[4,24,10,4,4,4,4,3,0,8,4,28,2,22,0,0,2,7,0,6,7,0,2,0,0,8,2,0,0,0,0,6,0,10,0,0,0,0,0,0,3,0,0,0,0,0,0,0,0,0,2,8,7,8,0,3,4,0,2,0,0,0,0,0,0,0,0,0,0,0,0,8,0,0,0,2,0,4,0,0,26,10,8,2,3,7,6,0,0,3,3,0,0,10,0,0,0,23,7,0,0,0,0,0,0,0,0,0,2,0,2,3,3,0,2,8,3,2,4,8,0,4,0,0,2,0,0,0,3,0,0,0,0,4,0,0,0,3,0,0,10,0,0,0,0,8,0,0,3,6,8,3,10,0,0,0,3,0,0,0,0,0,0,0,0,0,0,0,0,0,0,0,0,0,0,0,0,0,0,0,0,0,0,0,0,0,0,0,0,0,0,0,0,0,0,0,0,0,0,0,0,0,0],"split_type":[0,0,0,0,0,0,0,0,0,0,0,0,0,0,0,0,0,0,0,0,0,0,0,0,0,0,0,0,0,0,0,0,0,0,0,0,0,0,0,0,0,0,0,0,0,0,0,0,0,0,0,0,0,0,0,0,0,0,0,0,0,0,0,0,0,0,0,0,0,0,0,0,0,0,0,0,0,0,0,0,0,0,0,0,0,0,0,0,0,0,0,0,0,0,0,0,0,0,0,0,0,0,0,0,0,0,0,0,0,0,0,0,0,0,0,0,0,0,0,0,0,0,0,0,0,0,0,0,0,0,0,0,0,0,0,0,0,0,0,0,0,0,0,0,0,0,0,0,0,0,0,0,0,0,0,0,0,0,0,0,0,0,0,0,0,0,0,0,0,0,0,0,0,0,0,0,0,0,0,0,0,0,0,0,0,0,0,0,0,0,0,0,0,0,0,0,0,0,0,0,0,0,0],"sum_hessian":[3.19E2,2.63E2,5.6E1,2.1E2,5.3E1,1.7E1,3.9E1,2.03E2,7E0,3.1E1,2.2E1,1.2E1,5E0,3.2E1,7E0,5.3E1,1.5E2,2.9E1,2E0,1.3E1,9E0,7E0,5E0,1E0,4E0,2.8E1,4E0,6E0,1E0,1.5E1,3.8E1,3.5E1,1.15E2,2.7E1,2E0,1E0,1E0,1E0,1.2E1,4E0,5E0,3E0,4E0,4E0,1E0,2E0,2.6E1,1E0,3E0,3E0,1.2E1,1.4E1,2.4E1,3.4E1,1E0,6.1E1,5.4E1,2E0,2.5E1,1E0,1E0,2E0,1E1,2E0,3E0,2E0,1E0,1E0,3E0,1E0,1E0,2.3E1,3E0,1E0,2E0,1.1E1,1E0,1.2E1,2E0,2E0,2.2E1,2.6E1,8E0,1.4E1,4.7E1,3.2E1,2.2E1,1E0,1E0,6E0,1.9E1,1E0,1E0,9E0,1E0,1E0,2E0,1.5E1,8E0,1E0,2E0,1E0,1E0,9E0,2E0,2E0,1E1,1.6E1,6E0,1.7E1,9E0,4E0,4E0,2E0,1.2E1,3.5E1,1.2E1,2.5E1,7E0,2.1E1,1E0,3E0,3E0,1E0,1.8E1,8E0,1E0,1E1,5E0,3E0,5E0,1E0,1E0,1.4E1,2E0,4E0,2E0,1.5E1,2E0,1E0,8E0,3E0,1E0,1E0,3E0,1.1E1,1E0,2E1,1.5E1,8E0,4E0,1E1,1.5E1,3E0,4E0,1E0,2E1,1E0,2E0,1E0,2E0,9E0,9E0,4E0,1E0,2E0,3E0,1E0,1.3E1,1E0,1E0,1E0,1.4E1,1E0,1E0,2E0,6E0,1E1,1E0,1.3E1,7E0,7E0,8E0,3E0,5E0,3E0,1E0,5E0,5E0,1.4E1,1E0,3E0,1E0,1.1E1,9E0,1E0,1E0,1E0,8E0,3E0,1E0,1E0,2E0],"tree_param":{"num_deleted":"0","num_feature":"29","num_nodes":"203","size_leaf_vector":"1"}},{"base_weights":[2.9012201E1,-2.3230814E1,8.242676E2,-1.05711205E2,4.0984454E2,1.0967339E3,-1.0852862E-1,-6.244841E1,-1.4444597E-1,7.0729004E2,-5.681593E1,-3.2364856E-2,1.199324E3,2.7835883E2,-1.7391719E2,-4.8111188E2,8.571536E2,-7.455167E2,3.713704E2,1.52953E-2,1.2551625E-1,6.3930945E2,-1.8354807E1,-6.5231604E2,-6.47696E1,-8.47268E-3,-5.84998E-2,-5.414033E-2,9.317675E2,-8.5618116E-2,1.456726E-3,8.10772E2,-4.9382648E2,8.49634E2,-1.1304039E2,-2.677465E2,8.568104E2,-7.275275E2,9.52437E-2,1.4563454E2,-3.2912308E2,1.0336445E3,-1.9383772E2,3.510716E2,1.1083178E-1,6.7710616E-2,-9.558362E2,-5.4782957E-2,1.01677185E3,9.0247095E-2,-6.997391E-2,-4.6252475E2,1.0165544E3,1.0388306E3,-2.0866528E-2,-4.7266342E2,-1.1028723E3,-5.535558E2,2.8730878E2,-7.9884894E2,-1.4767377E2,4.4686075E2,1.1645422E3,3.1178186E-2,-6.0253844E-2,4.1330084E-2,5.107727E-3,-1.105714E-1,-2.5310144E-2,1.1419647E2,1.16933234E-1,-6.827034E2,2.0117801E2,1.20573446E-1,2.2450708E-2,1.1138423E-1,2.9437987E-2,-7.815888E2,-9.268455E1,-1.2235404E3,1.7257238E-2,-1.3535704E-1,1.3018402E2,-8.610172E-2,3.48823E2,4.6272572E-2,-9.7448865E2,2.8215082E2,-6.0597736E2,-2.39937E-2,6.322077E-2,1.291697E3,3.6478758E-2,2.7501049E-2,-1.8412279E-2,1.8796956E2,-1.0070845E3,4.891178E2,-7.632303E-2,-1.0010134E3,-2.7419156E2,-4.2886893E2,9.467634E-2,-1.7179968E-2,-1.303535E3,5.6461847E2,-9.2689104E-2,1.8190656E2,7.2963245E2,-1.147762E1,-1.102125E3,-9.689475E-2,4.2099658E2,-6.52326E0,-1.0051785E3,1.3385223E-1,2.9465917E-2,-9.474895E-2,6.0455926E-2,-1.0608752E-1,-1.539021E-2,1.433316E-2,7.871267E-2,-1.7177979E-2,-1.0949354E-1,-3.6627933E-2,4.707983E-3,-7.37887E-2,-3.4077049E-3,-1.8384447E-2,-1.3971196E-1,-5.667566E-3,1.044758E-1,-1.0605123E-2,6.997232E-2,-4.833059E-2,8.827473E-2,1.0059815E-3,-2.7276245E-3,-2.0788785E-2,-1.2237085E-1,-1.1284445E-2,7.283349E-2,7.213088E-2,-3.696239E-2,-1.3236211E-1,-5.6108862E-2],"categories":[],"categories_nodes":[],"categories_segments":[],"categories_sizes":[],"default_left":[0,0,0,0,0,0,0,0,0,0,0,0,0,0,0,0,0,0,0,0,0,0,0,0,0,0,0,0,0,0,0,0,0,0,0,0,0,0,0,0,0,0,0,0,0,0,0,0,0,0,0,0,0,0,0,0,0,0,0,0,0,0,0,0,0,0,0,0,0,0,0,0,0,0,0,0,0,0,0,0,0,0,0,0,0,0,0,0,0,0,0,0,0,0,0,0,0,0,0,0,0,0,0,0,0,0,0,0,0,0,0,0,0,0,0,0,0,0,0,0,0,0,0,0,0,0,0,0,0,0,0,0,0,0,0,0,0,0,0,0,0,0,0,0,0,0,0],"id":8,"left_children":[1,3,5,7,9,11,-1,13,-1,15,17,-1,19,21,23,25,27,29,31,-1,-1,33,35,37,39,-1,-1,-1,41,-1,-1,43,45,47,49,51,53,55,-1,57,59,61,63,65,-1,-1,67,-1,69,-1,-1,71,73,75,-1,77,79,81,83,85,87,89,91,-1,-1,-1,-1,-1,-1,93,-1,95,97,-1,-1,-1,-1,99,101,103,-1,-1,105,-1,107,-1,109,111,113,-1,-1,115,-1,-1,-1,117,119,121,-1,123,125,127,-1,-1,129,131,-1,133,135,137,139,-1,141,143,145,-1,-1,-1,-1,-1,-1,-1,-1,-1,-1,-1,-1,-1,-1,-1,-1,-1,-1,-1,-1,-1,-1,-1,-1,-1,-1,-1,-1,-1,-1,-1,-1],"loss_changes":[1.3480228E7,1.0937994E7,1.1596053E7,1.4794725E7,6.8416815E6,3.011066E6,0E0,9.545753E6,0E0,5.755333E6,6.174708E6,0E0,8.01294E5,6.6518705E6,9.826589E6,1.151505E5,3.32196E6,6.853865E5,5.342576E6,0E0,0E0,4.526697E6,7.86847E6,4.917279E6,8.669196E6,0E0,0E0,0E0,3.181866E6,0E0,0E0,8.41939E5,3.352114E6,5.695537E6,4.802089E6,7.474491E6,1.7682725E6,2.731216E6,0E0,8.777023E6,5.763E6,1.32302E6,8.078019E5,7.223181E4,0E0,0E0,1.414395E5,0E0,2.620416E6,0E0,0E0,3.790674E6,3.2866225E5,6.3005E4,0E0,2.5100315E6,2.211919E6,8.3812415E6,5.4569435E6,4.660993E6,1.0217474E7,9.1546525E5,1.460966E6,0E0,0E0,0E0,0E0,0E0,0E0,2.4253138E5,0E0,5.555467E6,2.3171502E6,0E0,0E0,0E0,0E0,1.0615565E6,4.2499455E6,7.85656E5,0E0,0E0,4.656408E6,0E0,4.31671E6,0E0,2.076908E6,5.098086E6,5.976013E6,0E0,0E0,3.52576E5,0E0,0E0,0E0,3.4109372E6,4.79237E5,5.0546425E5,0E0,4.349785E5,1.6517019E5,1.0728355E6,0E0,0E0,8.95792E5,2.1473672E6,0E0,7.529674E6,4.326733E6,1.2951796E3,1.376474E6,0E0,4.183934E6,3.1736525E6,1.378589E6,0E0,0E0,0E0,0E0,0E0,0E0,0E0,0E0,0E0,0E0,0E0,0E0,0E0,0E0,0E0,0E0,0E0,0E0,0E0,0E0,0E0,0E0,0E0,0E0,0E0,0E0,0E0,0E0,0E0,0E0,0E0,0E0],"parents":[2147483647,0,0,1,1,2,2,3,3,4,4,5,5,7,7,9,9,10,10,12,12,13,13,14,14,15,15,16,16,17,17,18,18,21,21,22,22,23,23,24,24,28,28,31,31,32,32,33,33,34,34,35,35,36,36,37,37,39,39,40,40,41,41,42,42,43,43,46,46,48,48,51,51,52,52,53,53,55,55,56,56,57,57,58,58,59,59,60,60,61,61,62,62,69,69,71,71,72,72,77,77,78,78,79,79,82,82,84,84,86,86,87,87,88,88,91,91,95,95,96,96,97,97,99,99,100,100,101,101,104,104,105,105,107,107,108,108,109,109,110,110,112,112,113,113,114,114],"right_children":[2,4,6,8,10,12,-1,14,-1,16,18,-1,20,22,24,26,28,30,32,-1,-1,34,36,38,40,-1,-1,-1,42,-1,-1,44,46,48,50,52,54,56,-1,58,60,62,64,66,-1,-1,68,-1,70,-1,-1,72,74,76,-1,78,80,82,84,86,88,90,92,-1,-1,-1,-1,-1,-1,94,-1,96,98,-1,-1,-1,-1,100,102,104,-1,-1,106,-1,108,-1,110,112,114,-1,-1,116,-1,-1,-1,118,120,122,-1,124,126,128,-1,-1,130,132,-1,134,136,138,140,-1,142,144,146,-1,-1,-1,-1,-1,-1,-1,-1,-1,-1,-1,-1,-1,-1,-1,-1,-1,-1,-1,-1,-1,-1,-1,-1,-1,-1,-1,-1,-1,-1,-1,-1],"split_conditions":[9.44357E-1,8.2198113E-1,9.4156927E-1,8.1093025E-1,5.0417364E-1,2.2704507E-1,-1.0852862E-1,2.996905E-1,-1.4444597E-1,1.2349225E-1,2E0,-3.2364856E-2,1.2060302E-1,3.3333334E-1,1.6582662E-1,5.169443E-3,1.1592742E-2,8.014113E-1,1E0,1.52953E-2,1.2551625E-1,3E0,1E0,9.9532187E-1,6.1441535E-1,-8.47268E-3,-5.84998E-2,-5.414033E-2,8.7405884E-1,-8.5618116E-2,1.456726E-3,9.119952E-1,1.743251E-1,3.4369063E-2,3.0745968E-1,2.7336308E-1,8.666667E-1,9.576613E-2,9.52437E-2,1.7529215E-1,7.101815E-1,2.220176E-1,2.960942E-1,3.785522E-1,1.1083178E-1,6.7710616E-2,6.909822E-1,-5.4782957E-2,2.6377296E-1,9.0247095E-2,-6.997391E-2,6.166667E-1,5.4796094E-1,9.3467337E-1,-2.0866528E-2,3.954189E-1,8.5769004E-1,4.4932055E-1,3.3333335E-2,3.517588E-2,5.776294E-1,5.5276383E-2,7.9899496E-1,3.1178186E-2,-6.0253844E-2,4.1330084E-2,5.107727E-3,-1.105714E-1,-2.5310144E-2,1.8592964E-1,1.16933234E-1,3.0150753E-1,8.040201E-1,1.20573446E-1,2.2450708E-2,1.1138423E-1,2.9437987E-2,6.048387E-2,6.87681E-1,5.5691693E-3,1.7257238E-2,-1.3535704E-1,1E0,-8.610172E-2,4.828629E-1,4.6272572E-2,2.0333143E-1,9.108487E-2,4.688906E-1,-2.39937E-2,6.322077E-2,9.170017E-1,3.6478758E-2,2.7501049E-2,-1.8412279E-2,5.0251256E-3,5.833333E-1,5.603119E-2,-7.632303E-2,3.0948207E-1,7.5818497E-1,1E0,9.467634E-2,-1.7179968E-2,3.8175608E-3,5.829146E-1,-9.2689104E-2,6.633166E-1,3.4933075E-1,7.5818494E-2,8.599558E-2,-9.689475E-2,1.7529215E-1,5.0251257E-2,6.989831E-1,1.3385223E-1,2.9465917E-2,-9.474895E-2,6.0455926E-2,-1.0608752E-1,-1.539021E-2,1.433316E-2,7.871267E-2,-1.7177979E-2,-1.0949354E-1,-3.6627933E-2,4.707983E-3,-7.37887E-2,-3.4077049E-3,-1.8384447E-2,-1.3971196E-1,-5.667566E-3,1.044758E-1,-1.0605123E-2,6.997232E-2,-4.833059E-2,8.827473E-2,1.0059815E-3,-2.7276245E-3,-2.0788785E-2,-1.2237085E-1,-1.1284445E-2,7.283349E-2,7.213088E-2,-3.696239E-2,-1.3236211E-1,-5.6108862E-2],"split_indices":[9,4,5,4,5,5,0,3,0,0,12,0,1,10,2,0,2,2,20,0,0,11,27,6,2,0,0,0,8,0,0,4,0,8,2,3,7,2,0,5,2,9,0,3,0,0,0,0,5,0,0,7,0,1,0,4,9,6,7,1,5,1,1,0,0,0,0,0,0,1,0,1,1,0,0,0,0,2,6,6,0,0,28,0,2,0,0,9,9,0,0,0,0,0,0,1,7,3,0,8,0,15,0,0,4,1,0,1,3,0,4,0,5,1,3,0,0,0,0,0,0,0,0,0,0,0,0,0,0,0,0,0,0,0,0,0,0,0,0,0,0,0,0,0,0,0,0],"split_type":[0,0,0,0,0,0,0,0,0,0,0,0,0,0,0,0,0,0,0,0,0,0,0,0,0,0,0,0,0,0,0,0,0,0,0,0,0,0,0,0,0,0,0,0,0,0,0,0,0,0,0,0,0,0,0,0,0,0,0,0,0,0,0,0,0,0,0,0,0,0,0,0,0,0,0,0,0,0,0,0,0,0,0,0,0,0,0,0,0,0,0,0,0,0,0,0,0,0,0,0,0,0,0,0,0,0,0,0,0,0,0,0,0,0,0,0,0,0,0,0,0,0,0,0,0,0,0,0,0,0,0,0,0,0,0,0,0,0,0,0,0,0,0,0,0,0,0],"sum_hessian":[3.23E2,3.04E2,1.9E1,2.56E2,4.8E1,1.7E1,2E0,2.49E2,7E0,2.9E1,1.9E1,1E0,1.6E1,6.1E1,1.88E2,3E0,2.6E1,7E0,1.2E1,1E0,1.5E1,2.7E1,3.4E1,3.4E1,1.54E2,1E0,2E0,1E0,2.5E1,6E0,1E0,8E0,4E0,2.1E1,6E0,2.7E1,7E0,3.3E1,1E0,8.6E1,6.8E1,2.3E1,2E0,4E0,4E0,1E0,3E0,2E0,1.9E1,2E0,4E0,2.4E1,3E0,6E0,1E0,2.1E1,1.2E1,1.4E1,7.2E1,1.8E1,5E1,5E0,1.8E1,1E0,1E0,3E0,1E0,2E0,1E0,3E0,1.6E1,1.8E1,6E0,2E0,1E0,5E0,1E0,1.1E1,1E1,1.1E1,1E0,6E0,8E0,3E0,6.9E1,2E0,1.6E1,2.6E1,2.4E1,1E0,4E0,1.5E1,3E0,2E0,1E0,5E0,1.3E1,5E0,1E0,7E0,4E0,8E0,2E0,1E0,1E1,6E0,2E0,4.9E1,2E1,2E0,1.4E1,2E0,2.4E1,1E1,1.4E1,1.4E1,1E0,1E0,4E0,1.2E1,1E0,3E0,2E0,1E0,6E0,3E0,1E0,4E0,4E0,1E0,9E0,3E0,3E0,3.2E1,1.7E1,2E0,1.8E1,1E0,1E0,2E0,1.2E1,9E0,1.5E1,3E0,7E0,7E0,7E0],"tree_param":{"num_deleted":"0","num_feature":"29","num_nodes":"147","size_leaf_vector":"1"}},{"base_weights":[-1.8711882E1,-1.2763193E3,1.7742071E1,-1.4731316E-1,-3.9165087E-2,1.319509E2,-2.874714E2,-3.8091428E2,2.180668E2,-5.1194913E2,3.044073E2,-6.816886E2,3.7903555E2,1.297088E2,6.0471155E2,-6.7451465E2,4.239059E1,4.899623E2,-1.15779854E-1,-1.2153452E3,-1.3664493E2,1.0627281E3,-9.121854E-2,1.6292429E2,-9.3255597E2,1.24225296E2,9.828893E2,-6.5624557E0,-8.501189E2,-5.4411444E2,7.9041266E2,-3.987592E2,7.0960925E2,-1.2945999E-1,-1.7177124E-2,5.0604263E2,-6.0157996E2,1.1925331E-1,1.4194946E-2,3.70875E2,-5.5244293E1,-1.9361109E-2,-1.06888935E-1,5.2893115E2,-5.294875E2,3.728793E2,1.1613673E3,5.266519E2,-3.8649237E2,-7.391968E-1,-1.0418905E3,9.358885E-2,-8.461008E2,2.6812948E-2,9.457E-2,2.2449585E-2,-6.106969E-2,1.01699524E3,2.8922375E2,-1.0729541E2,8.395355E2,4.2036705E-2,-8.076249E2,5.8591223E2,-1.8751773E2,-1.9010583E2,8.6733856E2,8.2971674E2,2.0450196E0,-1.1762321E2,-6.707086E-2,-3.326693E-2,5.805229E2,1.8447282E2,1.2974686E3,6.0920745E-2,9.821484E-3,-7.591731E-2,3.6347305E2,-6.4222E-2,5.125933E2,-1.1230656E3,6.966815E-2,-1.09897956E-1,-5.830965E1,3.803485E-2,1.12861335E-1,4.9956247E2,-2.9797446E2,2.2892212E-3,-1.8383533E-2,1.7293017E-2,1.0040939E-1,-9.322483E-2,-2.9942016E-3,9.6788605E2,2.672082E2,4.9863716E1,-8.684091E2,-3.5767548E2,5.463562E2,1.2817932E2,1.1658098E3,1.7256372E-2,9.104816E-2,1.632395E2,-3.2136645E-2,-2.2540404E-3,-1.5389441E-2,1.3031554E-2,6.604958E-2,5.107471E-3,2.2563452E-2,1.4171377E3,4.2619213E-2,-5.4745604E-3,5.9995517E-2,1.6454694E2,9.523894E-2,-1.3053491E3,-6.279634E2,-2.5308874E-2,1.6562426E-2,6.060865E-2,1.5550153E-2,-3.7748914E-2,-6.9472534E-3,5.0754474E2,1.3891853E-1,4.864192E2,-8.003112E2,-5.567418E2,3.9956165E2,8.797558E-3,-1.0772812E-1,1.3665329E2,-5.7665607E2,8.2616864E2,-6.617415E-2,-1.1391113E1,2.734453E-2,2.3844287E-2,1.2806305E-1,2.0823404E-2,1.412793E-3,3.51776E-2,1.4884964E-1,2.3914013E-2,5.9969155E-3,-1.3559589E3,-1.4657776E-2,-1.0128715E3,6.0777932E-2,8.344266E-2,-5.182667E-2,-2.419468E-2,7.407291E-2,-9.9113695E-2,-2.7910644E-2,-1.0119335E-1,-1.7227842E-2,9.177318E-2,-1.0166451E-2,-6.2269658E-2,6.764847E-2,-7.458384E-2,4.781534E-2,-2.4365611E-2,9.575167E-2,4.242407E-3,-5.951074E-3,-1.4013827E-1,-2.4645312E-2,-3.0473705E-2,-1.1981268E-1],"categories":[],"categories_nodes":[],"categories_segments":[],"categories_sizes":[],"default_left":[0,0,0,0,0,0,0,0,0,0,0,0,0,0,0,0,0,0,0,0,0,0,0,0,0,0,0,0,0,0,0,0,0,0,0,0,0,0,0,0,0,0,0,0,0,0,0,0,0,0,0,0,0,0,0,0,0,0,0,0,0,0,0,0,0,0,0,0,0,0,0,0,0,0,0,0,0,0,0,0,0,0,0,0,0,0,0,0,0,0,0,0,0,0,0,0,0,0,0,0,0,0,0,0,0,0,0,0,0,0,0,0,0,0,0,0,0,0,0,0,0,0,0,0,0,0,0,0,0,0,0,0,0,0,0,0,0,0,0,0,0,0,0,0,0,0,0,0,0,0,0,0,0,0,0,0,0,0,0,0,0,0,0,0,0,0,0,0,0,0,0,0,0,0,0],"id":9,"left_children":[1,3,5,-1,-1,7,9,11,13,15,17,19,21,23,25,27,29,31,-1,33,35,37,-1,39,41,43,45,47,49,51,53,55,57,-1,-1,59,61,-1,-1,63,65,-1,-1,67,69,71,73,75,77,79,81,-1,83,-1,-1,-1,-1,85,87,89,91,-1,93,95,97,99,101,103,105,107,-1,-1,109,111,113,-1,-1,-1,115,-1,117,119,-1,-1,121,-1,-1,123,125,-1,-1,-1,-1,-1,-1,127,129,131,133,135,137,139,141,-1,-1,143,-1,-1,-1,-1,-1,-1,-1,145,-1,-1,-1,147,-1,149,151,-1,-1,-1,-1,-1,-1,153,-1,155,157,159,161,-1,-1,163,165,167,-1,169,-1,-1,-1,-1,-1,-1,-1,-1,-1,171,-1,173,-1,-1,-1,-1,-1,-1,-1,-1,-1,-1,-1,-1,-1,-1,-1,-1,-1,-1,-1,-1,-1,-1,-1],"loss_changes":[1.4647124E7,9.90069E5,1.0878794E7,0E0,0E0,1.0108711E7,1.1449245E7,7.801307E6,6.583379E6,5.615818E6,7.078949E6,6.814716E6,9.797388E6,5.797318E6,6.419431E6,5.624592E6,7.0108555E6,4.5774715E6,0E0,7.70124E5,4.1889292E6,6.673705E5,0E0,7.0979455E6,2.967655E5,4.777606E6,1.744418E6,2.4319718E6,6.188932E6,4.8143235E6,3.141575E5,7.975551E5,2.031833E6,0E0,0E0,1.3173415E6,2.0240348E6,0E0,0E0,9.715885E6,9.745299E6,0E0,0E0,1.7415805E6,3.282565E5,1.072138E6,1.755E6,1.17016E5,2.232423E6,2.9635415E6,5.157412E6,0E0,1.5296445E6,0E0,0E0,0E0,0E0,2.81347E5,1.2604515E6,3.4102047E4,2.65144E5,0E0,6.50509E5,6.802096E6,3.7608148E6,8.587209E6,2.0567445E6,2.144085E5,3.1312044E5,6.877457E3,0E0,0E0,9.3949125E4,4.948461E3,7.51472E5,0E0,0E0,0E0,3.295487E5,0E0,6.086344E5,1.887756E6,0E0,0E0,1.7277058E5,0E0,0E0,1.62308E5,2.8282656E4,0E0,0E0,0E0,0E0,0E0,0E0,4.337408E6,8.111683E6,4.0407695E6,1.293347E6,6.1407125E6,4.941241E6,8.421419E4,4.40009E5,0E0,0E0,2.3894914E4,0E0,0E0,0E0,0E0,0E0,0E0,0E0,3.1263E5,0E0,0E0,0E0,1.6862133E4,0E0,1.032796E6,5.3720765E6,0E0,0E0,0E0,0E0,0E0,0E0,5.126925E6,0E0,5.3656775E6,3.2012325E5,1.0506978E6,3.2099465E6,0E0,0E0,7.799822E6,7.316378E6,1.779019E6,0E0,1.0293388E4,0E0,0E0,0E0,0E0,0E0,0E0,0E0,0E0,0E0,6.62588E5,0E0,6.843715E5,0E0,0E0,0E0,0E0,0E0,0E0,0E0,0E0,0E0,0E0,0E0,0E0,0E0,0E0,0E0,0E0,0E0,0E0,0E0,0E0,0E0,0E0,0E0],"parents":[2147483647,0,0,1,1,2,2,5,5,6,6,7,7,8,8,9,9,10,10,11,11,12,12,13,13,14,14,15,15,16,16,17,17,19,19,20,20,21,21,23,23,24,24,25,25,26,26,27,27,28,28,29,29,30,30,31,31,32,32,35,35,36,36,39,39,40,40,43,43,44,44,45,45,46,46,47,47,48,48,49,49,50,50,52,52,57,57,58,58,59,59,60,60,62,62,63,63,64,64,65,65,66,66,67,67,68,68,69,69,72,72,73,73,74,74,78,78,80,80,81,81,84,84,87,87,88,88,95,95,96,96,97,97,98,98,99,99,100,100,101,101,102,102,105,105,113,113,117,117,119,119,120,120,127,127,129,129,130,130,131,131,132,132,135,135,136,136,137,137,139,139,149,149,151,151],"right_children":[2,4,6,-1,-1,8,10,12,14,16,18,20,22,24,26,28,30,32,-1,34,36,38,-1,40,42,44,46,48,50,52,54,56,58,-1,-1,60,62,-1,-1,64,66,-1,-1,68,70,72,74,76,78,80,82,-1,84,-1,-1,-1,-1,86,88,90,92,-1,94,96,98,100,102,104,106,108,-1,-1,110,112,114,-1,-1,-1,116,-1,118,120,-1,-1,122,-1,-1,124,126,-1,-1,-1,-1,-1,-1,128,130,132,134,136,138,140,142,-1,-1,144,-1,-1,-1,-1,-1,-1,-1,146,-1,-1,-1,148,-1,150,152,-1,-1,-1,-1,-1,-1,154,-1,156,158,160,162,-1,-1,164,166,168,-1,170,-1,-1,-1,-1,-1,-1,-1,-1,-1,172,-1,174,-1,-1,-1,-1,-1,-1,-1,-1,-1,-1,-1,-1,-1,-1,-1,-1,-1,-1,-1,-1,-1,-1,-1],"split_conditions":[2.071731E-2,5.929648E-1,7.257323E-1,-1.4731316E-1,-3.9165087E-2,1.4516129E-1,7.1666664E-1,5.183846E-1,1E0,8.1233674E-1,9.6666664E-1,3.2160804E-1,1E0,9.670305E-1,3.8135424E-1,1.5430982E-1,4.8429495E-1,8.084434E-1,-1.15779854E-1,1E0,5.5778897E-1,7.839196E-1,-9.121854E-2,2E0,1.10281445E-1,2.860425E-1,1E0,8.5410684E-1,9.576613E-2,7.659391E-1,8.5956347E-1,7.530155E-1,9.2561746E-1,-1.2945999E-1,-1.7177124E-2,2.1666667E-1,3.159104E-3,1.1925331E-1,1.4194946E-2,7.2532856E-1,8.0374247E-1,-1.9361109E-2,-1.06888935E-1,6.333333E-1,1.16536066E-1,5.2159935E-1,8.3333336E-2,8.383113E-1,5.094676E-1,5.645161E-2,9.686962E-1,9.358885E-2,9.238943E-1,2.6812948E-2,9.457E-2,2.2449585E-2,-6.106969E-2,2.6633167E-1,8.833333E-1,1.0252728E-1,4.321608E-1,4.2036705E-2,1.0483871E-1,4.6666667E-1,8E-1,8.333333E-1,3E0,4.078116E-2,2.3520964E-1,3.087306E-1,-6.707086E-2,-3.326693E-2,4.1708544E-1,4.7616312E-1,9.698492E-1,6.0920745E-2,9.821484E-3,-7.591731E-2,8.7679493E-1,-6.4222E-2,8.055715E-1,9.238943E-1,6.966815E-2,-1.09897956E-1,9.902355E-1,3.803485E-2,1.12861335E-1,4.8000804E-1,9.53475E-1,2.2892212E-3,-1.8383533E-2,1.7293017E-2,1.0040939E-1,-9.322483E-2,-2.9942016E-3,5.427136E-1,1E0,3.556359E-1,1.2155917E-1,6E0,1E0,1.5824239E-1,1.1688685E-1,1.7256372E-2,9.104816E-2,1.7174038E-1,-3.2136645E-2,-2.2540404E-3,-1.5389441E-2,1.3031554E-2,6.604958E-2,5.107471E-3,2.2563452E-2,1.3065326E-1,4.2619213E-2,-5.4745604E-3,5.9995517E-2,7.4956924E-1,9.523894E-2,8.729839E-1,5.3333336E-1,-2.5308874E-2,1.6562426E-2,6.060865E-2,1.5550153E-2,-3.7748914E-2,-6.9472534E-3,4.0703517E-1,1.3891853E-1,6.5E-1,6.24496E-1,2.003339E-1,8.4629095E-1,8.797558E-3,-1.0772812E-1,5.1758796E-1,8E0,2.4713682E-2,-6.617415E-2,2.7570361E-2,2.734453E-2,2.3844287E-2,1.2806305E-1,2.0823404E-2,1.412793E-3,3.51776E-2,1.4884964E-1,2.3914013E-2,5.9969155E-3,8E0,-1.4657776E-2,2E0,6.0777932E-2,8.344266E-2,-5.182667E-2,-2.419468E-2,7.407291E-2,-9.9113695E-2,-2.7910644E-2,-1.0119335E-1,-1.7227842E-2,9.177318E-2,-1.0166451E-2,-6.2269658E-2,6.764847E-2,-7.458384E-2,4.781534E-2,-2.4365611E-2,9.575167E-2,4.242407E-3,-5.951074E-3,-1.4013827E-1,-2.4645312E-2,-3.0473705E-2,-1.1981268E-1],"split_indices":[6,1,0,0,0,2,7,4,19,4,7,1,27,6,4,4,6,0,0,17,1,1,0,11,0,0,11,0,2,0,0,0,0,0,0,10,0,0,0,6,6,0,0,7,4,4,7,0,6,2,0,0,0,0,0,0,0,1,7,0,1,0,2,10,7,10,12,0,0,0,0,0,1,0,1,0,0,0,0,0,0,0,0,0,0,0,0,4,0,0,0,0,0,0,0,1,16,4,4,13,27,0,0,0,0,0,0,0,0,0,0,0,0,1,0,0,0,0,0,2,7,0,0,0,0,0,0,1,0,10,2,5,6,0,0,1,13,4,0,0,0,0,0,0,0,0,0,0,0,13,0,12,0,0,0,0,0,0,0,0,0,0,0,0,0,0,0,0,0,0,0,0,0,0,0],"split_type":[0,0,0,0,0,0,0,0,0,0,0,0,0,0,0,0,0,0,0,0,0,0,0,0,0,0,0,0,0,0,0,0,0,0,0,0,0,0,0,0,0,0,0,0,0,0,0,0,0,0,0,0,0,0,0,0,0,0,0,0,0,0,0,0,0,0,0,0,0,0,0,0,0,0,0,0,0,0,0,0,0,0,0,0,0,0,0,0,0,0,0,0,0,0,0,0,0,0,0,0,0,0,0,0,0,0,0,0,0,0,0,0,0,0,0,0,0,0,0,0,0,0,0,0,0,0,0,0,0,0,0,0,0,0,0,0,0,0,0,0,0,0,0,0,0,0,0,0,0,0,0,0,0,0,0,0,0,0,0,0,0,0,0,0,0,0,0,0,0,0,0,0,0,0,0],"sum_hessian":[3.18E2,8E0,3.1E2,6E0,2E0,2.26E2,8.4E1,3.2E1,1.94E2,6.1E1,2.3E1,2.3E1,9E0,1.59E2,3.5E1,4.7E1,1.4E1,2.1E1,2E0,1.1E1,1.2E1,6E0,3E0,1.55E2,4E0,1.6E1,1.9E1,1E1,3.7E1,8E0,6E0,4E0,1.7E1,1E1,1E0,5E0,7E0,5E0,1E0,7.9E1,7.6E1,1E0,3E0,1E1,6E0,5E0,1.4E1,4E0,6E0,7E0,3E1,1E0,7E0,2E0,4E0,1E0,3E0,9E0,8E0,2E0,3E0,1E0,6E0,5.7E1,2.2E1,6.7E1,9E0,6E0,4E0,2E0,4E0,1E0,4E0,2E0,1.2E1,3E0,1E0,4E0,2E0,3E0,4E0,2.9E1,1E0,5E0,2E0,2E0,7E0,6E0,2E0,1E0,1E0,1E0,2E0,5E0,1E0,2.5E1,3.2E1,1.7E1,5E0,5.5E1,1.2E1,3E0,6E0,1E0,5E0,3E0,1E0,1E0,1E0,1E0,3E0,1E0,1E0,1E1,2E0,1E0,1E0,3E0,1E0,2E1,9E0,1E0,1E0,4E0,2E0,1E0,1E0,1.3E1,1.2E1,2.7E1,5E0,6E0,1.1E1,1E0,4E0,1.7E1,3.8E1,1E1,2E0,2E0,1E0,1E0,5E0,2E0,1E0,1E0,9E0,1E0,2E0,1.9E1,1E0,7E0,2E0,1E1,3E0,7E0,2E1,3E0,2E0,2E0,4E0,5E0,6E0,7E0,1E1,3.3E1,5E0,1E0,9E0,1E0,1E0,1.8E1,1E0,2E0,5E0],"tree_param":{"num_deleted":"0","num_feature":"29","num_nodes":"175","size_leaf_vector":"1"}},{"base_weights":[-4.602612E1,-8.8927795E2,-5.7251544E0,-1.0815436E3,9.012203E-2,-1.0409324E2,3.277129E2,-1.2326593E-1,-5.6300335E-2,-1.3385077E-1,-6.734957E1,1.7642169E2,7.404503E2,6.878486E1,-4.7236145E2,5.595032E2,-6.2082477E2,9.20669E2,1.965317E2,4.075166E2,-1.1419706E2,-5.32462E2,8.470364E-2,6.7623016E2,-5.725519E2,-8.678347E2,9.0350315E-2,-7.539762E1,1.0929633E3,-4.3803368E-2,4.110515E2,-2.3126546E2,5.947455E2,-7.2685126E2,4.5365434E0,-6.296566E2,4.148342E2,1.076569E3,3.0351163E2,8.797119E-3,-8.2205E-2,-1.0614083E3,3.247872E2,-1.5551843E-2,4.2421995E-3,1.1362751E-1,3.0826611E-2,1.2315543E-2,5.619304E-2,-8.7386115E2,8.7827155E2,7.5360156E2,-3.135923E2,8.911566E-2,-9.696261E2,3.402991E2,-3.181478E2,-3.7140436E2,-8.6458826E2,5.9903143E2,-2.5307605E-2,1.1523323E3,-2.9940552E-3,-6.8070926E-2,4.5934406E2,-2.53021E2,-1.1750546E3,1.0025513E-3,4.7715526E-2,1.185507E2,-1.136783E3,1.3114746E-1,7.9104004E0,-4.8539387E1,8.6331085E2,4.0979322E-2,-6.2301965E2,9.499951E-2,-1.1489772E3,9.977818E2,1.8767365E2,3.3202823E2,-5.267155E2,6.007289E2,-5.6658966E2,-1.0673965E3,2.3140015E1,6.659813E-2,1.6561596E-2,3.97605E-3,1.2289617E3,2.531404E2,1.0662209E-1,-5.950781E-3,-3.2002367E-2,-1.2295816E-1,-2.8762804E-2,-1.8415539E-2,3.6198143E-2,-3.0506847E-2,-1.21201806E-1,1.6575232E-2,-1.5388671E-2,-5.955775E-2,6.970246E-2,-2.7473423E1,1.0366069E3,1.460376E-3,-7.534651E-2,-1.4354526E-1,-4.3227615E2,2.8639171E-2,1.05090655E-1,-4.1290338E2,3.6948917E2,-3.6594315E2,9.8256696E2,-6.7217505E2,2.3426736E2,7.294745E-2,4.287317E-3,-7.585066E2,2.7601263E2,-1.3076384E3,-7.082784E2,6.1560486E2,-7.745264E-2,3.3016015E-2,1.2727034E-1,5.1962823E2,-3.3046332E2,6.771797E-2,-4.4477064E-2,-3.9180454E-2,1.0972808E-1,-1.17756585E-2,-1.00243695E-1,-8.5224204E-2,4.591651E-2,8.369681E-3,6.8780735E-2,-8.186621E-2,5.1056955E-2,-2.0746715E-2,1.21548384E-1,-8.2589805E-2,1.5722819E-2,9.815268E-2,-5.7155896E-2,-9.104978E-2,3.908508E-3,-6.282287E-2,6.5913014E-2,-1.3642055E-1,-3.427002E-2,-3.773833E-3,-1.08605295E-1,7.544226E-2,9.957568E-3,-3.5921287E-2,6.571897E-2,-1.2930785E-3,-4.0661376E-2],"categories":[],"categories_nodes":[],"categories_segments":[],"categories_sizes":[],"default_left":[0,0,0,0,0,0,0,0,0,0,0,0,0,0,0,0,0,0,0,0,0,0,0,0,0,0,0,0,0,0,0,0,0,0,0,0,0,0,0,0,0,0,0,0,0,0,0,0,0,0,0,0,0,0,0,0,0,0,0,0,0,0,0,0,0,0,0,0,0,0,0,0,0,0,0,0,0,0,0,0,0,0,0,0,0,0,0,0,0,0,0,0,0,0,0,0,0,0,0,0,0,0,0,0,0,0,0,0,0,0,0,0,0,0,0,0,0,0,0,0,0,0,0,0,0,0,0,0,0,0,0,0,0,0,0,0,0,0,0,0,0,0,0,0,0,0,0,0,0,0,0,0,0,0,0,0,0,0,0,0,0,0,0],"id":10,"left_children":[1,3,5,7,-1,9,11,-1,-1,-1,13,15,17,19,21,23,25,27,29,31,33,35,-1,37,39,41,-1,43,45,-1,47,49,51,53,55,57,59,61,63,-1,-1,65,67,-1,-1,-1,-1,-1,-1,69,71,73,75,-1,77,79,81,83,85,87,-1,89,-1,-1,91,93,95,-1,-1,97,99,-1,101,103,105,-1,107,-1,109,111,113,115,117,119,121,123,125,-1,-1,-1,127,129,-1,-1,-1,-1,-1,-1,-1,-1,-1,-1,-1,-1,-1,131,133,-1,-1,-1,135,-1,-1,137,139,141,143,145,147,-1,-1,149,151,153,155,157,-1,-1,-1,159,161,-1,-1,-1,-1,-1,-1,-1,-1,-1,-1,-1,-1,-1,-1,-1,-1,-1,-1,-1,-1,-1,-1,-1,-1,-1,-1,-1,-1,-1,-1,-1,-1],"loss_changes":[1.1175599E7,6.138479E6,1.0366006E7,4.03043E5,0E0,1.097694E7,4.3653035E6,0E0,0E0,0E0,1.3154874E7,1.6839512E7,1.68152E6,1.1141276E7,5.208806E6,5.276407E6,7.5615265E6,2.485038E6,9.968155E5,7.672246E6,8.514187E6,5.601383E6,0E0,4.746515E6,7.3151375E5,4.038495E6,0E0,3.4916812E4,5.7566E4,0E0,1.4798256E5,1.1462242E7,7.306778E6,8.327507E6,1.0834453E7,2.894486E6,8.8976394E5,1.375826E6,3.226777E6,0E0,0E0,9.88867E5,1.3909519E5,0E0,0E0,0E0,0E0,0E0,0E0,2.744033E6,2.251884E6,3.738002E6,2.0459915E6,0E0,6.944386E6,4.7298235E6,7.090777E6,5.4635115E6,4.88574E6,3.4788375E4,0E0,1.22997E6,0E0,0E0,1.8574805E6,1.9853797E4,2.27005E5,0E0,0E0,2.8772475E5,1.30845E5,0E0,1.0212218E5,2.8622435E6,5.740148E6,0E0,5.1005375E5,0E0,2.664564E6,3.9161E4,4.629527E6,6.26231E6,4.474464E6,3.2783275E5,3.9286795E6,9.71884E5,3.3123382E6,0E0,0E0,0E0,1.30216E5,2.349044E6,0E0,0E0,0E0,0E0,0E0,0E0,0E0,0E0,0E0,0E0,0E0,0E0,0E0,2.3595385E6,3.116606E6,0E0,0E0,0E0,9.5791675E5,0E0,0E0,4.222654E6,2.8535655E6,3.195682E6,2.192426E6,4.3373E6,4.77613E6,0E0,0E0,2.3389E6,2.146238E6,1.87492E5,2.745457E6,2.1141412E5,0E0,0E0,0E0,1.4450188E6,1.15643375E5,0E0,0E0,0E0,0E0,0E0,0E0,0E0,0E0,0E0,0E0,0E0,0E0,0E0,0E0,0E0,0E0,0E0,0E0,0E0,0E0,0E0,0E0,0E0,0E0,0E0,0E0,0E0,0E0,0E0,0E0,0E0,0E0],"parents":[2147483647,0,0,1,1,2,2,3,3,5,5,6,6,10,10,11,11,12,12,13,13,14,14,15,15,16,16,17,17,18,18,19,19,20,20,21,21,23,23,24,24,25,25,27,27,28,28,30,30,31,31,32,32,33,33,34,34,35,35,36,36,37,37,38,38,41,41,42,42,49,49,50,50,51,51,52,52,54,54,55,55,56,56,57,57,58,58,59,59,61,61,64,64,65,65,66,66,69,69,70,70,72,72,73,73,74,74,76,76,78,78,79,79,80,80,81,81,82,82,83,83,84,84,85,85,86,86,90,90,91,91,105,105,106,106,110,110,113,113,114,114,115,115,116,116,117,117,118,118,121,121,122,122,123,123,124,124,125,125,129,129,130,130],"right_children":[2,4,6,8,-1,10,12,-1,-1,-1,14,16,18,20,22,24,26,28,30,32,34,36,-1,38,40,42,-1,44,46,-1,48,50,52,54,56,58,60,62,64,-1,-1,66,68,-1,-1,-1,-1,-1,-1,70,72,74,76,-1,78,80,82,84,86,88,-1,90,-1,-1,92,94,96,-1,-1,98,100,-1,102,104,106,-1,108,-1,110,112,114,116,118,120,122,124,126,-1,-1,-1,128,130,-1,-1,-1,-1,-1,-1,-1,-1,-1,-1,-1,-1,-1,132,134,-1,-1,-1,136,-1,-1,138,140,142,144,146,148,-1,-1,150,152,154,156,158,-1,-1,-1,160,162,-1,-1,-1,-1,-1,-1,-1,-1,-1,-1,-1,-1,-1,-1,-1,-1,-1,-1,-1,-1,-1,-1,-1,-1,-1,-1,-1,-1,-1,-1,-1,-1],"split_conditions":[9.3E1,7.9899496E-1,1E0,5.0753766E-1,9.012203E-2,3.0150754E-2,7.9405266E-1,